44 64
11 0.05571754 0.023857335 -0.06495332 0.32033643 0.0540197 -0.7174583 -0.62007976 -0.14969346 -0.015330862 0.15981765 0.03409003 -0.44429952 -0.96354145 -0.3439191 -0.52473956 0.17627546 0.27346247 -0.46096456 0.11059666 -0.27176866 0.02112178 0.15619667 -0.21722905 -0.22485605 0.06827815 0.17042495 0.012117298 0.46205395 -0.017853606 0.09467328 0.051387444 -0.40151614 -0.06662891 0.017246729 0.17173837 -0.13539128 -0.108418174 -0.15647587 0.14592224 0.14555149 -0.042913903 -0.4424518 -0.015946917 -0.04479824 -0.32993835 -0.10306904 -0.31145313 -0.13994788 0.16704242 -0.061021954 -0.1770519 0.06306426 -0.2707708 0.075643316 -0.16070569 -0.071104795 -0.15978777 0.10600387 0.07732647 -0.086633 0.04013658 -0.065641075 0.19130608 -0.29303247
0 0.079233445 -0.19006722 -0.11248951 0.41204873 0.006460153 -0.3827923 -0.63330406 0.08377875 -0.29595393 0.49602863 -0.11882064 -0.4011064 -0.90418595 -0.044133082 -0.44372383 0.035062894 -0.025595093 -0.17541696 -0.038753916 -0.36979237 0.28611338 0.31368393 -0.3095785 -0.19672942 0.1277765 0.110843435 -0.041009378 0.592699 0.3099393 0.06152202 0.08022009 -0.4739796 -0.06758485 0.17932831 -0.09415965 -0.21179551 0.08634872 0.010982393 -0.06851217 -0.017922126 0.021077797 0.048633307 0.010259037 -0.043399595 -0.10441571 0.06048856 0.09849205 0.10756105 -0.039608903 -0.059505 0.18218334 0.06824637 -0.0353371 -0.065343775 0.085113555 0.011945348 0.122525 -0.13853358 -0.012649683 0.073100746 0.15130949 0.14489703 0.02134845 -0.09007905
43 -0.015434287 0.16336074 -0.23219022 0.70112514 0.1338005 -0.9439607 -0.09473466 0.49180645 -0.3974436 0.26937512 0.0065742 -0.22725737 -1.2020025 -0.67789423 0.12879986 0.48470524 0.50688905 -1.1782446 0.2885959 -0.13131481 -0.17709164 -0.2206803 -0.2001405 -0.13911188 -0.0568598 0.7409836 -0.05687641 0.8609992 -0.024994057 0.11277646 0.13386096 -1.3097537 0.3623935 -0.17014605 -0.10106544 0.2834437 0.63650477 -0.09552384 0.20671193 0.14265297 0.2344951 0.050462328 0.080699906 0.060768638 -0.49553517 -0.31264013 -0.14665598 0.28839734 0.37540868 -0.41468155 0.35301363 0.35940558 -0.061197616 -0.5115484 0.13157783 -0.21544403 -0.16197626 -0.34820995 0.05165388 0.13247994 -0.53704727 0.24064846 0.19338468 0.018634366
39 0.004687037 0.30828163 -0.20490003 0.62721604 0.1205248 -1.0624774 -0.14664046 0.3639562 -0.25219703 0.307607 -0.20200996 -0.20994265 -1.2456632 -0.5869772 0.14065704 0.4084066 0.40685663 -1.1001495 0.34594786 -0.1481546 -0.3362726 -0.29335088 -0.15362614 -0.22465451 -0.035224807 0.8775342 -0.06287358 0.7873272 0.07003106 0.03787455 0.40752548 -1.2771649 0.2973276 -0.22413188 -0.11978415 0.3216475 0.6642413 -0.109132126 0.2050663 0.18160821 0.12557791 0.050946474 0.11477858 0.07255121 -0.48132557 -0.2104153 -0.11510635 0.34299508 0.33206114 -0.5002801 0.2560123 0.33910942 -0.09848741 -0.5222132 0.20236567 -0.20374891 -0.12568936 -0.40480235 -0.051468544 0.08592548 -0.45603374 0.32897314 0.17038904 -0.0072892136
13 0.005479793 0.27051908 -0.1949587 0.58818924 0.21120581 -1.1250412 -0.19054295 0.52278113 -0.23056836 0.29695675 -0.045385037 -0.18438502 -1.2423537 -0.67704165 0.15026438 0.36329183 0.3886165 -1.1376909 0.35978174 -0.14521587 -0.20821334 -0.32711694 -0.14740178 -0.15493302 -0.10008896 0.7328953 -0.11412349 0.8024165 0.096036986 0.24315116 0.20742004 -1.2836069 0.39384663 -0.18313743 -0.07768413 0.3164384 0.7384439 -0.12774768 0.103307605 0.12923805 0.1806797 0.022068044 0.040283967 0.10717524 -0.5708121 -0.23347089 -0.13681495 0.2777542 0.3105317 -0.37540704 0.2515179 0.38911435 -0.08330895 -0.53148615 0.24765094 -0.22954416 -0.032224685 -0.30227277 0.011069669 0.15041807 -0.3867099 0.2054225 0.19011317 0.07317783
3 -0.027109876 -0.1416735 0.12586802 0.16714002 0.051883046 -0.5903767 -0.45673823 -0.13739824 -0.022586524 0.17852779 -0.011713214 -0.5363068 -0.8302531 -0.31875676 -0.5104835 0.080397345 0.26363614 -0.24310097 0.10618571 -0.39973742 0.10817302 0.20437007 -0.17846416 -0.27032864 0.14830038 0.2071837 0.122911304 0.56286764 0.10566787 0.1715396 0.09535742 -0.46554393 0.04491952 0.10428023 0.07876881 -0.20215732 -0.06362611 -0.17193514 0.011358582 0.13619609 0.0022760313 -0.45939252 0.052483317 -0.16633958 -0.46850854 -0.0912511 -0.26489946 -0.116634645 0.1100744 -0.027522985 -0.10451851 0.12446022 -0.20260908 0.033865925 -0.028839076 -0.10751772 -0.27863637 -0.03774546 -0.2035928 -0.0933206 -0.12605445 -0.10605531 0.029279536 -0.2578224
37 -0.19675638 0.16861595 -0.28541046 0.40369233 -0.058341354 -0.8915678 0.17192341 0.11129911 -0.4553074 0.2250547 -0.059366785 -0.03687223 -1.127525 -0.44562635 0.17158152 -0.039773785 0.4564358 -0.9024708 0.40125528 -0.3297792 -0.22445787 -0.06475501 -0.4591057 -0.10230758 0.11503747 0.42434084 0.04244767 0.49172103 0.09861493 0.15218484 0.25596222 -0.5977909 -0.2977638 0.17333028 0.010804093 -0.36385807 -0.14115089 -0.26643744 -0.10767346 0.33569285 0.15572496 -0.18533002 -0.044396304 -0.33125037 -0.35786068 0.16442578 -0.32066032 -0.12942348 0.06460676 0.35039172 -0.15679233 0.36367002 -0.4899074 0.14455041 -0.078326814 -0.035994668 -0.31154704 0.20536654 -0.057645366 -0.24354012 0.0034219245 -0.14988132 0.24178231 -0.3277423
26 0.014537818 0.18783565 -0.104402475 0.2677049 0.15400498 -0.537489 -0.6114644 -0.07309529 0.007877157 0.13872573 0.15757944 -0.55933696 -0.72128356 -0.34695992 -0.5698558 0.02105577 0.24339211 -0.151574 0.034179825 -0.39777294 0.18856394 0.23935647 -0.10799671 -0.21893989 0.259345 0.25707588 -0.014170796 0.7352257 0.14779758 0.07734483 0.11938393 -0.33547705 -0.06407801 0.1252131 -0.011764763 -0.17185336 -0.010398281 -0.17439726 -0.057840202 0.17301169 -0.08319552 -0.22131094 0.079658486 -0.24662927 -0.2292597 -0.027753536 -0.3111023 -0.022603508 0.17050646 0.038438134 -0.08273615 0.24602649 -0.2011827 0.016654622 -0.07158671 -0.23325826 -0.25277022 0.003297884 -0.04100914 -0.19993405 -0.06185923 -0.041581348 0.13818981 -0.18569411
33 -0.07930597 0.1592716 -0.19673833 0.34344158 0.1366022 -0.62548596 -0.17627597 0.14335632 -0.26857272 0.048072793 -0.1867322 -0.23611562 -0.9459131 -0.31022254 -0.14271788 0.03150411 0.26161185 -0.4910562 0.16545317 -0.15022966 0.044821855 -0.12372875 -0.3387334 -0.15705456 0.11610735 0.50817597 -0.030355139 0.5688963 0.13402383 0.24948774 0.13215849 -0.7252081 -0.33429578 0.5716734 -0.18186012 -0.72057605 0.55755436 0.08598354 -0.32549715 -0.5652262 0.09258577 0.18945442 0.15325776 -0.024393976 -0.061013926 -0.13338639 -0.15317944 0.14750375 0.03024632 -0.34066555 0.07342724 0.027838217 0.19782898 -0.34967852 -0.21885237 0.16282508 -0.15777093 -0.07446301 -0.043163065 0.17274393 -0.1228049 0.03472382 -0.35592112 -0.045424603
27 -0.20883168 0.0663785 -0.15040524 0.41783798 0.075496435 -0.9154475 0.093326166 0.05254613 -0.54310596 0.06356547 -0.0992309 -0.011163136 -1.1246774 -0.52420557 0.085012905 -0.041374248 0.45645294 -1.0327564 0.42090052 -0.29115295 -0.26934278 -0.07654707 -0.2988598 -0.14266257 0.04911332 0.3583538 0.26827592 0.43014368 0.07336168 0.23010182 0.20439069 -0.6926788 -0.323601 0.24387872 0.040094342 -0.3340995 -0.087562874 -0.20325154 -0.09778577 0.40595233 0.16152167 -0.15550856 -0.0055167456 -0.4412065 -0.30651486 0.24900062 -0.34403187 -0.009030603 0.061930925 0.37225643 -0.22105049 0.3662138 -0.4879273 0.1505679 -0.1045337 0.044168293 -0.22694907 0.33561823 -0.0825984 -0.4236231 -0.09709178 0.06316976 0.15170436 -0.15546681
35 -0.038052324 0.0016939582 0.09440797 0.14381398 -0.05256363 -0.56489587 -0.46715596 -0.14031501 -0.07618524 0.095800385 0.11836251 -0.5867629 -0.9073609 -0.34093603 -0.5845986 0.111282915 0.104528315 -0.11915468 -0.007417114 -0.33453897 0.17522638 0.34733123 -0.2136961 -0.18335731 0.31885973 0.0030143054 0.19161841 0.66444975 0.1829366 0.0982321 0.26462665 -0.33379653 -0.05938027 0.10963939 0.017542744 -0.16659963 0.1724698 -0.12553994 -0.028391406 0.20116064 0.072682984 -0.1708704 0.01716833 -0.0847122 -0.32944566 0.11314545 -0.2563899 -0.048416328 0.13275173 0.038660806 -0.06816204 0.2209746 -0.14318755 -0.030064268 -0.11874896 -0.05100955 -0.16566916 -0.08510432 -0.09162222 -0.006672414 -0.091899544 -0.0483045 0.11722565 -0.21516709
19 -0.08689976 0.1274466 -0.20890765 0.4162648 0.03673357 -0.48802224 -0.33053136 0.1957786 -0.292403 0.08844443 -0.30593798 -0.20916113 -0.8686555 -0.32804987 -0.22156808 0.1018404 0.15219705 -0.49903727 0.10812837 -0.270674 -0.10917177 0.004383939 -0.18450801 -0.10866035 0.110195994 0.42167875 -0.06511669 0.66641355 -0.04441227 0.3382293 0.1684077 -0.64155847 -0.30519354 0.5205308 -0.10901123 -0.7316666 0.5017457 0.11102291 -0.2138063 -0.44627076 0.043365285 0.17275263 0.18176413 -0.06663321 -0.19826405 -0.04780236 -0.037997812 -0.048204437 -0.14850542 -0.34984714 -0.09566856 -0.11292342 0.23554751 -0.4837155 -0.17714114 0.077942386 0.008921339 -0.09750895 -0.07103358 0.0702108 -0.20767547 -0.034747023 -0.1673779 0.044536103
14 -0.13867393 0.16181472 -0.15930682 0.3760733 0.12511191 -0.84463966 0.000981083 0.06692075 -0.35001263 0.21506535 -0.009996008 -0.20029698 -1.0643959 -0.42347634 0.2352577 -0.04861394 0.40533146 -0.86689 0.3581618 -0.16687152 -0.28215322 -0.10568844 -0.3014339 -0.22758467 0.08674222 0.23239057 0.16319418 0.57310456 0.20144492 0.14177053 0.1933237 -0.7254738 -0.21549077 0.2844641 0.05341631 -0.4319635 -0.20048544 -0.24924357 -0.0513779 0.41909978 0.12613915 -0.2394072 -0.0013462036 -0.38053545 -0.33173323 0.1028885 -0.21314344 0.02857326 0.13893329 0.40801167 -0.19198038 0.3060348 -0.2743376 0.22423312 -0.066920914 0.018476702 -0.29955876 0.12473654 0.048109744 -0.274177 -0.050622437 0.098567545 0.28905827 -0.382073
38 -0.14719354 0.2550541 -0.39292473 0.39299947 0.26606226 -0.5034982 -0.153472 0.020670548 -0.30322024 0.13071883 -0.18990883 -0.13717236 -0.9527347 -0.5289807 -0.0850979 0.05132579 0.26717335 -0.6017016 0.18014471 -0.2209424 -0.19992468 -0.03184904 -0.20181851 -0.209314 0.0135383075 0.3903747 -0.060477324 0.5985671 0.13852969 0.19604391 0.21899427 -0.7273543 -0.28336212 0.65384525 -0.22200069 -0.6908002 0.631123 -0.021344695 -0.42848688 -0.5025997 0.12154874 0.28466168 0.13184945 -0.09997458 -0.14659792 -0.000463027 0.017794859 -0.048966493 -0.19054022 -0.2605889 0.15191978 -0.022854446 0.22966035 -0.3094224 -0.21683447 0.0772816 -0.26016232 -0.18948998 -0.031627595 0.24068904 -0.18574655 0.079913735 -0.18742032 0.002762162
6 -0.01931261 0.3837454 -0.35944918 0.24435526 0.30627057 -0.80178875 -0.14900243 -0.055809278 -0.42555895 0.30333447 -0.23810935 -0.054536592 -0.9318299 -0.49190158 -0.030570306 0.05463756 0.17522252 -0.841478 0.22946522 -0.066773325 -0.40903085 -0.14895914 -0.35568535 -0.42926306 0.0011154808 0.49775448 0.07284203 0.5191258 0.091693334 0.39409238 -0.09230771 -0.6457622 -0.2562243 0.53424966 -0.30919757 -0.83096945 0.5262817 -0.027255468 -0.19809088 -0.69525427 0.3547538 0.31418446 0.122815095 -0.15638274 -0.02910757 0.053059477 0.06769036 0.0033818076 -0.028478224 -0.29099995 0.23728582 0.08915275 0.082315914 -0.086137354 -0.38352907 -0.011116307 -0.13841173 -0.2413633 -0.10837179 0.38513175 -0.20556213 0.10286246 -0.1883235 0.1443153
18 0.05317805 0.32194984 -0.3116608 0.31968373 0.12089281 -0.7963225 -0.2074462 0.14311565 -0.42237914 0.10109923 -0.17743656 -0.07333441 -0.8870774 -0.3988927 -0.0622387 0.07766303 0.2676836 -0.70175636 0.11098229 -0.15616316 -0.25660318 -0.27212727 -0.2716332 -0.23560576 0.09682866 0.45958337 0.10427793 0.61676395 0.087977126 0.31717578 0.05395057 -0.6129897 -0.25718498 0.6101782 -0.16863893 -0.80189174 0.6402829 0.014571425 -0.27761066 -0.57743025 0.24631798 0.258319 0.16601065 -0.2801577 -0.06613934 -0.079543464 0.087887794 0.057579637 -0.058570687 -0.24675211 0.1513262 0.045745887 0.15780425 -0.23241119 -0.27100226 0.137297 -0.18852137 -0.32002136 -0.12500468 0.26408127 -0.06726087 0.07239278 -0.28599355 -0.06746217
1 -0.055670336 0.22155432 -0.036333755 0.58935493 0.19736734 -0.37937233 -0.39244246 0.09259973 -0.28700185 0.1495791 -0.21467577 -0.21446994 -0.93772787 -0.32682905 -0.31590196 0.10103148 -0.012825755 -0.4022756 0.19001193 -0.22886592 0.05901482 0.03570139 -0.22339623 -0.13623205 0.0650344 0.49537748 0.014757632 0.4403413 -0.15010081 0.13304703 0.0049635284 -0.67895293 -0.25242144 0.35069612 -0.10509361 -0.6330316 0.48582828 0.050345212 -0.34251195 -0.4109545 0.18605205 0.07334879 0.22056825 -0.0027126106 -0.21467417 -0.014831505 -0.15732883 -0.085311875 -0.06824585 -0.3861009 0.10042706 0.015288127 0.25122726 -0.44196326 -0.11149741 0.15772516 -0.07533079 -0.09278817 -0.054742116 0.052598815 -0.0007536726 -0.027630283 -0.36568066 -0.02979404
41 0.021738455 -0.07855053 0.031219797 0.3407663 0.01190724 -0.55525666 -0.4876622 -0.06403652 -0.24715012 0.1413405 -0.014466033 -0.29542342 -0.9052483 -0.3161152 -0.3934236 -0.10593127 0.13377413 -0.49805444 0.20838691 -0.2857653 -0.092579365 0.11189386 -0.23407038 -0.22656535 0.18676916 0.41237465 -0.010253893 0.5162612 0.0854783 0.23797406 0.028102925 -0.46371546 0.05217961 0.06857157 0.14768328 -0.2958705 -0.032202087 -0.39895827 0.21809246 0.30585343 0.012776 -0.4822688 0.04196255 -0.06989347 -0.32793304 -0.026858931 -0.33364356 -0.21685947 0.10635121 -0.10957613 -0.074841894 0.15705192 -0.33992615 0.22521658 -0.031033196 -0.13015755 -0.14055336 0.041699793 0.09714036 -0.15605235 -0.06332462 0.08347146 0.19866242 -0.31065932
15 -0.06543246 0.0126763 -0.24708478 0.3791071 0.07436829 -0.8020455 -0.022906141 0.092421055 -0.3499251 0.24399804 0.056635648 -0.16558942 -1.0494224 -0.40656513 0.1383189 0.058876123 0.43815613 -0.76478463 0.21045634 -0.19102381 -0.29263163 -0.04961119 -0.274541 -0.18250126 0.054090027 0.30819365 0.024897674 0.61071587 0.23809835 0.21984899 0.29719526 -0.6843687 -0.3064776 0.06202345 -0.0006435822 -0.34790373 -0.062629 -0.32061157 -0.0713867 0.4098125 0.24418142 -0.3771335 0.005161703 -0.22642344 -0.26757294 0.057548046 -0.23278297 -0.13561794 0.06615744 0.29616594 -0.042839963 0.36219063 -0.41086096 0.42378557 -0.072552934 0.03218277 -0.3646574 0.1629074 -0.13539962 -0.07549837 0.13227937 0.1766255 0.25885513 -0.314865
25 -0.18874505 0.15390293 -0.24444799 0.23704106 0.037349045 -0.78580314 -0.076731615 0.051538825 -0.4069467 0.15287323 -0.0072726216 -0.0555231 -1.0405651 -0.4053606 -0.11394845 0.10760941 0.24557969 -0.7059991 0.16729705 -0.19874518 -0.28513017 -0.045051653 -0.36281204 -0.31559187 0.045178533 0.2667781 0.076845184 0.58122206 0.27682683 0.114604644 0.092859864 -0.66607773 -0.09558652 0.12343191 0.01823137 -0.36898652 -0.17553145 -0.4316922 -0.0012628076 0.438556 0.1418361 -0.30887446 0.025592098 -0.17548802 -0.3116053 0.021712339 -0.14816406 0.013518787 0.06888403 0.26198554 -0.04465394 0.27302864 -0.24521144 0.45801106 0.021517796 -0.05578997 -0.26916736 -0.007648138 0.109649666 -0.108354084 0.06594026 0.042099636 0.33478 -0.43831387
8 -0.07534976 0.19267958 -0.3575652 0.24257332 0.2082494 -0.7570666 -0.17537174 0.02635028 -0.32676452 0.13485493 -0.2541189 -0.19477955 -0.8224796 -0.46387866 0.07104077 0.101643756 0.18015371 -0.7130487 0.24626607 -0.22229066 -0.30374175 -0.18037723 -0.27860525 -0.28450912 -0.089753754 0.49212226 0.013348406 0.6271006 0.10501365 0.290537 0.023843627 -0.8535795 -0.31951538 0.61220574 -0.418843 -0.8916333 0.60044247 -0.012099718 -0.25312963 -0.6068389 0.2677307 0.23749878 0.1750196 -0.09176677 0.023807539 0.02666765 0.059370395 -0.05235113 0.03488539 -0.25101534 0.22789125 0.17830184 0.14630243 -0.075798444 -0.26842514 0.0088333925 -0.17324767 -0.3263923 -0.10003518 0.32523036 -0.17605579 0.026873622 -0.18541792 0.06521081
36 0.08426476 -0.18925977 -0.05915003 0.11715856 -0.058692746 -0.45212328 -0.58840054 -0.011125693 0.02727212 0.27691704 0.13984194 -0.33638456 -0.72335386 -0.2930398 -0.6139638 0.030886784 0.06338205 -0.2198582 -0.011179964 -0.42022902 0.15637743 0.38553685 -0.24140052 -0.2724074 0.19111547 0.21771173 0.16206451 0.71075106 0.22203787 0.06516045 0.1496039 -0.43730563 -0.19411585 0.18421702 0.10573528 -0.10424203 0.014592814 -0.19249293 -0.23807108 0.13547118 0.0053816745 -0.065125756 0.03297562 -0.1692966 -0.2097211 -0.06704911 -0.1991907 0.085357696 0.15118523 -0.009265763 -0.018935071 0.22076738 -0.06278508 -0.15429656 0.031025717 -0.113887556 -0.17800881 -0.055341512 -0.19313641 -0.14626248 0.035300624 -0.019907704 0.15490901 -0.19441344
29 -0.06478995 0.08792917 -0.20236045 0.24639577 0.13284373 -0.6584418 -0.40862995 -0.07191379 -0.23601358 0.15806617 -0.12291051 -0.38634336 -0.91704667 -0.3859688 -0.25400436 0.1881572 0.11527192 -0.47761926 0.006015687 -0.31994033 -0.044090264 0.111495376 -0.18206076 -0.24003062 0.0006240617 0.3683965 0.10385007 0.41481933 0.053603612 0.1962295 0.003950179 -0.59204 -0.034761187 0.012073642 0.21889983 -0.3445292 -0.12508993 -0.4846253 0.2164155 0.36715886 0.17444359 -0.2862697 -0.0075699547 -0.13702485 -0.5233952 -0.13901487 -0.19801222 -0.0126950415 0.017920386 -0.046780795 -0.026586106 0.20092094 -0.38697726 0.33709475 -0.08626404 -0.022266787 -0.221335 0.16214399 0.06440281 -0.08697948 0.07385003 0.06979527 0.22342356 -0.30126154
28 0.0059055546 0.018065825 -0.06985562 0.2981918 0.018435558 -0.66676295 -0.25471687 -0.011725228 -0.26019838 0.2112789 -0.12936579 -0.15506743 -0.90278727 -0.44531363 -0.24717069 0.22269052 0.08477292 -0.5639637 0.1254429 -0.31608686 -0.16242942 -0.057085473 -0.3127753 -0.2534457 -0.012397531 0.31361803 -0.066168204 0.6326835 0.19157302 0.13967323 0.035221368 -0.5557451 0.022630401 0.10152976 0.26561144 -0.34172252 -0.13933137 -0.52128106 0.1125951 0.31585538 0.123639375 -0.45898274 -0.017947849 -0.12069761 -0.32106212 0.04724082 -0.29254937 -0.15614125 0.15294845 0.11568272 -0.025198719 0.24993941 -0.2507851 0.32014713 -0.11014186 0.020470925 -0.365607 0.008646048 0.13469799 -0.11104652 0.15290344 0.2752108 0.25876406 -0.24980396
23 0.016379198 0.11651212 -0.14942816 0.31218004 0.06562438 -0.54395247 -0.22676846 -0.032659058 -0.2219052 0.2927625 0.010408837 -0.26628828 -1.043227 -0.40250015 0.033967763 -0.002071465 0.24684511 -0.6662356 0.19328253 -0.16222946 -0.20384945 0.017714031 -0.24441247 -0.1791862 0.017775854 0.4566254 0.1538696 0.5652924 0.24226646 0.2507982 0.1362061 -0.60467184 -0.22269039 0.01738925 0.220135 -0.39736646 -0.102193184 -0.47715208 0.18015018 0.34204817 0.20536071 -0.299071 -0.05310448 -0.08691696 -0.38610578 -0.07653876 -0.16484316 -0.17959169 0.09441109 0.23591466 0.04748264 0.37342593 -0.30829367 0.4359682 -0.109449334 -0.025149379 -0.2052687 -0.028254261 0.09940491 -0.17128332 0.053968303 0.098808125 0.33265662 -0.34493557
42 -0.03065681 -0.09202603 0.0385168 0.24554579 -0.20205648 -0.42299417 -0.67034775 0.038322054 0.0045206435 0.39589626 0.041757803 -0.5060468 -0.8604195 -0.21787395 -0.49398887 0.23079775 0.104392484 -0.098312944 -0.029276548 -0.42652607 0.19500259 0.21086639 -0.31809044 -0.25304976 0.080192946 0.09343477 0.043832865 0.6328801 0.24045497 0.07630862 0.14170186 -0.26123932 -0.10766768 0.1944227 -0.07367196 -0.16286807 0.22192663 -0.091645055 -0.13720872 0.11704387 0.109305546 0.029031737 0.047990635 -0.09038143 -0.21771318 0.09773557 -0.22887081 0.078082554 -0.014637341 0.023583239 0.1471159 0.23083138 -0.048853617 0.021700583 0.04657365 -0.07963726 -0.098126985 -0.0041679027 0.044428926 -0.294778 -0.10109824 -0.023586713 0.020783769 -0.16607471
20 0.15637109 0.011527686 0.045545544 0.2506704 -0.07932671 -0.5427933 -0.6514007 -0.13925028 -0.10301284 0.17866613 0.059604205 -0.65337986 -0.90160805 -0.37747145 -0.4385188 -0.0015146912 0.34597063 -0.45478204 0.2032949 -0.35781056 -0.17944206 0.13359436 -0.31065527 -0.3993641 0.058144324 0.3278944 -0.07066994 0.43594083 -0.105286874 0.108491376 -0.03564599 -0.5701814 0.17135656 -0.054011296 0.12770419 -0.18294284 -0.1709909 -0.024194412 0.01152585 0.24478275 -0.05568655 -0.49001145 0.15462336 -0.048624843 -0.31391722 -0.15956236 -0.4270525 -0.16543752 0.084966846 -0.13374546 -0.19944568 0.03965488 -0.19311324 0.24794988 -0.1286567 -0.14220554 -0.04655446 0.17295887 -0.11067832 -0.038494673 -0.016159082 -0.114710875 0.15998228 -0.1857685
17 0.013102528 -0.12869276 0.038197827 0.15871376 -0.032814153 -0.3158443 -0.6972015 0.075430125 -0.1239025 0.33851695 0.11019764 -0.39014366 -0.9166756 -0.2711723 -0.36623952 0.05699182 -0.09272315 -0.25888607 0.0010061683 -0.3476575 0.23568365 0.37766007 -0.32010612 -0.19611911 0.14977702 0.1113303 0.0065104007 0.67108965 0.32264665 -0.09613906 0.14002386 -0.40224272 -0.19292279 0.12854713 0.0371279 -0.21018942 0.09572703 -0.13090529 -0.04209281 0.24223796 0.091360524 0.027143493 0.070420295 -0.13624287 -0.071688354 0.070385136 -0.06398 0.09188416 0.0016942933 -0.0483259 -0.0029049746 0.10352706 -0.076162346 -0.1524317 0.02877737 0.050680667 -0.03811994 -0.16244769 -0.016210364 -0.013373935 0.06962539 -0.11322076 -0.11500764 0.086222894
16 -0.003915678 -0.1003468 -0.08221198 0.43333673 -0.018159268 -0.3680413 -0.6596455 0.14864504 -0.0693938 0.38880163 -0.15171927 -0.35894465 -0.88326573 -0.2504626 -0.32829383 0.035032406 -0.18354848 -0.1974615 0.046435356 -0.24999055 0.12148709 0.27096283 -0.27428946 -0.24241765 0.13312772 0.14331253 -0.16946836 0.7915232 0.21411376 0.12791398 0.0004086011 -0.3571764 -0.17925555 0.013331049 -0.10131358 -0.22632799 0.11770843 -0.0039691553 -0.11020258 -0.05890394 0.110304564 0.0013029167 0.12563807 -0.025422143 0.0403501 -0.18217672 0.124361455 0.057591956 -0.1891019 -0.026858333 0.12349813 -0.04237277 0.031570476 0.018853042 0.102345824 0.17196976 -0.07972775 -0.16309522 0.08762682 0.099822186 -0.042989787 0.051155597 -0.25262785 -0.10875103
31 -0.1197763 0.08839274 -0.19689214 0.42417568 0.19954103 -0.41197976 -0.47062024 -0.045177456 -0.40688705 0.11684027 -0.25682005 -0.2545791 -0.7785156 -0.31467244 -0.39365652 0.14127196 -0.060239565 -0.35435152 0.12987506 -0.24277091 0.108483806 -0.036152545 -0.30958167 -0.20674269 0.01964288 0.5955855 -0.09962359 0.5946845 0.051331397 0.34238604 0.031303927 -0.53557336 -0.241931 0.34072542 -0.06348024 -0.54297453 0.3428242 0.0696716 -0.12883379 -0.2933369 0.20842367 0.09038159 0.239767 0.22478591 -0.20649219 -0.082028784 -0.08095021 0.0039558862 -0.110288136 -0.34158894 -0.07201919 -0.04111421 0.33586353 -0.46936017 -0.13237923 0.20459592 0.020540677 -0.049454786 -0.009336946 -0.048457563 -0.10468341 -0.05209401 -0.24724647 0.026779504
10 0.052332878 0.06728748 -0.013501579 0.30548587 0.14635491 -0.35503983 -0.45663285 0.13215818 -0.23695926 0.43630165 -0.16035396 -0.33505672 -0.8879165 -0.16641533 -0.621973 -0.051541615 0.096968964 -0.12210351 -0.06646562 -0.34586143 0.2207648 0.23366252 -0.26043946 -0.25915122 -0.03198756 0.21414982 -0.25636363 0.637814 0.14883135 0.07297792 0.10009496 -0.5747281 -0.084983855 0.19172838 -0.004734665 -0.39509505 0.19699506 0.03420854 0.10203679 -0.08606209 0.19673754 0.05094714 0.10023677 0.0979072 0.08771979 -0.16346346 0.33840084 -0.05969266 -0.08303609 -0.07668992 0.07087427 0.05891912 0.058207214 -0.073395304 0.100282885 0.19384526 0.011534286 -0.20092964 0.07726289 0.0021549994 0.03232402 0.095773466 -0.28237203 -0.081092566
30 0.023806408 0.17131093 -0.11477253 0.43792728 0.2062565 -0.44657522 -0.3742865 0.1405695 -0.2902862 0.22312243 -0.27471876 -0.24098372 -0.7313622 -0.3069609 -0.5085395 0.122567065 -0.1693803 -0.18400753 0.06695924 -0.26624462 0.27052224 0.05718791 -0.1906545 -0.2341255 0.050557114 0.48693386 -0.042816047 0.782628 0.037149034 0.12131438 0.08403096 -0.5691674 -0.16298705 0.14038296 0.007107829 -0.47038713 0.22563136 0.034186613 -0.15013868 -0.2201925 0.3091345 0.04683066 0.20261887 0.26493233 -0.19636928 -0.1704804 0.12823927 -0.27652025 -0.13154042 -0.2986815 0.10719313 0.03842493 0.3247723 -0.13828516 -0.13642162 0.28470615 0.050903343 -0.19489925 0.04312286 -0.03402549 0.018503183 0.051120885 -0.2300473 0.022475075
2 -0.0125960605 0.105930686 -0.13623403 0.5383719 0.089638405 -0.28200886 -0.3555117 -0.044653855 -0.07697368 0.20820536 -0.3843308 -0.22290814 -0.8181933 -0.29761156 -0.5049034 0.22879604 -0.010367523 -0.3255878 0.04615215 -0.22738338 0.091940515 -0.018432211 -0.19175707 -0.17343913 0.15733644 0.44190872 0.028766248 0.6973271 0.0023391512 0.29178825 -0.0012522774 -0.6877213 -0.12972881 0.14427154 -0.020863118 -0.6858834 0.24979095 -0.056560796 -0.10949549 -0.27785164 0.21745546 0.114544444 0.22806895 0.16519164 -0.12522937 -0.040098827 -0.046082683 -0.10804955 -0.072032414 -0.29712623 0.04767984 0.09358263 0.30261576 -0.3577503 -0.05702558 0.19394219 0.16934367 -0.0730155 0.112175256 0.02078217 0.042740196 -0.02046768 -0.3958601 0.05943393
24 -0.1117095 -0.23469199 -0.0035219362 0.4243498 0.1286375 -0.42961705 -0.55292434 0.103524566 -0.23646848 0.5602277 0.023667736 -0.47619462 -0.9886715 -0.08062844 -0.36673513 0.22228602 -0.15752114 -0.12817277 0.05072159 -0.31374556 0.19434278 0.23686977 -0.25613815 -0.12049813 0.20905194 0.29622215 0.15609764 0.7180266 0.31576997 0.075422496 0.06658986 -0.4927101 -0.083627574 0.1753707 -0.12136978 -0.07714193 0.10539312 -0.032377094 -0.037855867 -0.07934575 0.075468816 -0.051833935 0.083022244 -0.15519774 0.12111792 0.024744965 0.20325983 0.18240544 -0.15268232 -0.11153034 0.059824705 -0.12732945 -0.122889236 -0.009832518 0.13018826 -0.068515226 0.03622517 -0.108034536 0.18458878 0.011868886 0.14166267 -0.064324625 -0.0072750743 0.092987165
21 0.21966067 -0.06315407 -0.103291474 0.40154007 0.2949827 -0.3282999 -0.54504454 0.14495005 -0.17981967 0.19086331 -0.31672892 -0.35415044 -0.89109486 -0.24999468 -0.4794939 0.06189932 0.045854107 -0.14698634 0.0077284416 -0.25317395 0.16310774 0.021228336 -0.19991192 -0.28470144 0.12302809 0.25394222 -0.1800989 0.753182 0.17676774 0.22119637 0.051589362 -0.46598122 -0.09523101 0.024229473 -0.121694 -0.29350045 0.039223686 -0.11428557 -0.02451435 -0.13168404 0.19998464 0.1781375 0.17639703 0.17741051 -0.037324004 -0.106231004 0.17587395 -0.14460503 -0.24211676 -0.104762524 0.13854225 -0.0065793996 0.28661022 -0.13887917 -0.046088 0.20326313 -0.03211459 -0.15097454 0.05174029 0.11010918 0.039862998 0.046552785 -0.33155742 -0.17872773
12 0.0046002124 0.18689358 -0.20303652 0.472873 0.10707356 -0.28232506 -0.49632317 -0.072965376 -0.24095875 0.15899187 -0.35067293 -0.3710442 -0.80479187 -0.34678268 -0.6159718 0.033321362 -0.11145479 -0.21089286 0.033401407 -0.26382217 0.1406312 0.12110016 -0.2155951 -0.13463645 0.04120561 0.4084046 -0.08523761 0.64639837 0.07305975 0.27075863 -0.014099579 -0.543046 -0.0011527806 0.095452264 -0.081099786 -0.48677814 0.23988569 -0.016140478 -0.044371545 -0.2088762 0.24681577 -0.01688209 0.16731745 0.19351093 0.020525014 -0.20471643 0.21467654 -0.056496635 -0.026384624 -0.047910612 0.06470293 0.09301544 0.24973118 -0.19810271 0.14261962 0.31629452 -0.046464372 -0.15881902 0.053054716 0.069974534 0.004388886 0.11400382 -0.3445901 -0.04020925
5 -0.1694225 -0.21805705 0.009414034 0.8001476 0.025945101 -0.4822456 -0.62604344 -0.10702371 -0.29448137 0.5325725 0.012579441 -0.34018993 -0.8496398 -0.04643197 -0.33739826 0.11515039 -0.04054347 -0.0806408 0.024533698 -0.30077657 0.3606678 0.1847765 -0.32341626 -0.23902422 0.06703248 0.26798347 0.15901917 0.8679478 0.4748529 0.0458518 0.18736336 -0.61517495 -0.0002590673 0.19425777 -0.06346184 0.00901835 0.1376167 -0.015284997 -0.005927087 -0.0048530884 0.03555903 -0.0044532474 -0.021285687 -0.23483221 -0.0754408 0.055612665 0.17431702 0.180567 -0.17754363 -0.07754182 0.11020945 -0.21033059 -0.12431358 0.03847205 0.06395508 -0.09178329 0.083891205 -0.12280791 0.11444327 0.19793169 0.14893155 -0.120997354 -0.053835247 0.18929069
22 -0.2728664 -0.24106145 -0.10038164 0.75085455 0.107184194 -0.40519327 -0.4923522 0.07189599 -0.2687192 0.4678717 -0.03465839 -0.5198298 -1.0843654 0.02695856 -0.3779187 0.12845892 -0.10871432 -0.06650569 0.04847624 -0.4257286 0.3243996 0.14809799 -0.26353505 -0.13329183 0.21460749 0.4002586 0.27650407 0.7846859 0.5213682 0.0053294543 0.06889677 -0.6690503 -0.011457791 0.17517285 -0.05711287 0.17080352 0.15028708 -0.052558046 -0.0458457 -0.1768797 -0.0031976828 -0.034306895 -0.054988705 -0.24036147 0.03578148 0.06961163 0.2377762 0.14484304 -0.10090359 -0.033345427 0.08644745 -0.22759941 -0.103624016 0.14499098 -0.034055997 -0.11353958 0.14572385 -0.16917966 0.08178199 0.16149427 0.163118 -0.11787233 0.052984476 0.2528454
4 -0.12578961 0.13744749 -0.17117915 0.6698787 0.20745175 -1.0700865 -0.21291685 0.54255146 -0.3332853 0.28686014 -0.1727283 -0.19753705 -1.2302833 -0.68603 0.15823019 0.31711614 0.45295238 -1.1282307 0.2550355 -0.042782053 -0.2639386 -0.23884633 -0.23284037 -0.15885074 -0.022027941 0.69184333 -0.06729825 0.7945158 0.06732484 0.20528552 0.18585815 -1.2594353 0.47223985 -0.19879313 -0.014285742 0.24648874 0.7681132 -0.01753396 0.10765124 0.22443973 0.17936382 0.09517311 0.07850803 0.07297741 -0.5421062 -0.34144852 -0.10810691 0.24758361 0.37044334 -0.47407845 0.33344057 0.5442845 -0.06807629 -0.5486121 0.110621005 -0.2880394 -0.23168878 -0.34556505 0.10466206 0.10211259 -0.32559335 0.11209902 0.21304795 0.060823895
34 0.049883377 0.3277443 -0.24639083 0.5740477 0.25778133 -1.0800118 -0.1398971 0.42828622 -0.21472739 0.28679767 -0.005682537 -0.084135555 -1.3627013 -0.523477 0.17843144 0.34494758 0.30348146 -1.0416013 0.45078683 -0.3687586 -0.28542 -0.3431231 -0.20797923 -0.14841394 -0.12568104 0.677548 -0.04172152 0.84514 0.011137337 0.2278065 0.2985848 -1.2561945 0.3093533 -0.22006463 -0.064961135 0.27991733 0.7533424 -0.106409624 0.27806488 0.173922 0.061410546 0.06058755 0.08828395 0.055142716 -0.58544844 -0.2647747 -0.20106623 0.3462932 0.32404357 -0.48544037 0.28152552 0.37795216 -0.029963912 -0.4733425 0.28037524 -0.2221546 -0.09029829 -0.3215505 -0.03690156 0.13585696 -0.46546748 0.30271542 0.1094117 0.03660568
40 -0.006778197 0.14556755 -0.44426858 0.19384257 0.2718072 -0.819809 -0.1943823 -0.18580198 -0.44781148 0.23633316 -0.2203473 -0.09115244 -0.83014154 -0.53684556 0.06878639 0.15204689 0.13748017 -0.91331863 0.2667278 -0.24400215 -0.3496667 -0.3311957 -0.25326413 -0.34866104 -0.06901381 0.5605621 -0.026830254 0.5410256 -0.027681332 0.3768315 -0.1579646 -0.7419951 -0.30381584 0.5672461 -0.29162616 -0.8142661 0.66592443 0.1062919 -0.18675862 -0.5425736 0.20971228 0.24745525 0.18443562 -0.21536823 0.028545815 0.09096837 0.09028013 -0.09012546 -0.061418347 -0.2780837 0.27074578 0.14483814 0.04872941 -0.05977188 -0.36213923 0.06076656 -0.067870416 -0.50025177 -0.06020777 0.31627083 -0.07095456 0.013901907 -0.27092135 -0.07312358
9 -0.20249888 0.085172094 -0.30465916 0.47778487 -0.029461196 -0.9797353 0.14566432 0.03628025 -0.3534719 0.1926544 -0.06479799 -0.12567681 -1.0144793 -0.42039534 0.237295 -0.096720226 0.42047375 -1.044648 0.46012557 -0.37376216 -0.2015434 -0.1469395 -0.44299078 -0.20136361 0.17863148 0.40432212 0.2227147 0.47592708 -0.0059144483 0.16908826 0.28105295 -0.6882565 -0.21370818 0.34465677 -0.030357538 -0.3543877 -0.10525306 -0.3079202 -0.10853843 0.52114385 0.31424856 -0.079927124 -0.085806206 -0.42890707 -0.39831313 0.28516647 -0.348584 -0.14543967 0.16012117 0.25412372 -0.25717637 0.27734795 -0.38017586 0.06775337 -0.08842422 0.06787373 -0.33241305 0.39075014 0.022870788 -0.31668758 -0.05209688 -0.06076152 0.23591731 -0.25080147
32 0.11888325 0.056186114 -0.19838142 0.16298898 0.040527675 -0.551251 -0.82197964 -0.018866139 -0.08233715 0.26391712 -0.0012825412 -0.4537312 -0.9092537 -0.3648967 -0.44893175 0.09977091 0.34873188 -0.5867158 0.22886446 -0.23731296 0.0074442583 0.1844708 -0.27912384 -0.2722263 -0.047605425 0.26402727 0.15291671 0.51636404 -0.0054842927 0.10233494 0.024117596 -0.5469009 0.23293838 -0.030114757 0.09590052 -0.12941045 -0.090558335 0.04264426 0.2437089 0.16779535 -0.03851003 -0.6215471 0.088432394 -0.007390389 -0.24728318 -0.006322332 -0.4391032 -0.25672343 0.13461848 -0.18829614 -0.27251145 0.032370787 -0.28492045 0.20553207 -0.1578107 -0.04253555 -0.11615607 0.1763824 -0.1415067 -0.123469 -0.059032537 -0.17664847 0.048914623 -0.45967582
7 -0.031177772 -0.17242488 0.01994098 0.67509633 0.111824326 -0.51212955 -0.47817138 -0.069760956 -0.387733 0.54614305 -0.056568697 -0.4695142 -0.9264988 -0.08981729 -0.34350955 0.1744587 -0.15020841 -0.036260422 0.09259525 -0.24591112 0.46569324 0.216882 -0.31612673 -0.07153073 0.1032085 0.4760052 0.35052976 0.92148626 0.44951713 0.13140607 0.24358994 -0.7070854 0.046130423 0.23123397 -0.11631027 0.095930226 0.100610286 0.042712238 -0.052761685 -0.08527258 -0.12407369 0.010056182 -0.12104366 -0.24295427 0.02788926 0.088082165 0.20715275 0.2072669 -0.174751 -0.043122943 0.14125314 -0.2893809 -0.11468818 0.09037434 0.13937546 -0.1332136 0.026306564 -0.10643893 0.22399256 0.17515415 0.20211636 -0.15191375 0.07150723 0.24566603
