276 64
120 0.02061468 -0.014049509 -0.13384056 -0.17631981 -0.023993023 -0.22277154 -0.15723774 -0.16204813 -0.09408285 -0.39250124 -0.05514016 0.18485408 -0.31803071 0.14894755 0.4324074 0.7667361 -0.09236193 0.30127782 0.038559657 0.022831317 0.15237477 0.509546 0.10841462 0.6844658 0.061762914 0.68627864 0.006698357 -0.18188682 0.4990674 0.3711706 -0.6043142 0.25470346 -0.020238297 0.046207603 0.5706824 0.34912542 0.009487173 -0.3500497 -0.013703272 0.85803586 0.008296393 -0.57662666 0.35119218 -0.42789763 -0.23946856 -0.47972336 0.3451062 -0.22446793 -0.23376328 0.29553908 -0.5205758 -0.032763127 -0.1353016 0.035093468 0.19698663 -0.26913983 -0.032484792 0.2766094 0.82506734 -0.15373382 -0.32377768 0.23443148 0.2124768 -0.12562536
34 0.16085534 0.59823745 0.33988592 0.0305393 0.2678855 -0.15290175 -0.22013101 -0.14650768 0.29745284 -0.482139 -0.43687344 0.13944112 -0.3302906 -0.30845323 0.44510502 0.37418288 0.19844842 0.6944388 -0.66683024 0.15273622 -0.17744747 0.25066176 -0.14132512 0.05307073 -0.06376134 0.08568462 0.18324074 -0.57822907 0.6790445 0.3192756 -0.30715492 -0.092030376 -0.04815325 -0.12867418 0.24368244 0.20628348 -0.25908163 -0.6392872 0.36465177 0.393425 0.59502506 -0.42869085 0.5603346 -0.78563905 -0.26254308 -0.51183635 -0.20420144 -0.10875673 -0.356275 0.14669201 0.01840765 -0.14476562 -0.16689669 -0.46135136 0.17391999 -0.33022198 -0.035649475 0.3373466 0.43753147 0.32054612 -0.33743116 0.39642143 -0.110490605 0.061293084
184 -0.06760571 0.8726887 -0.42311373 0.38396725 -0.14911297 0.15506935 -0.7854132 0.084579356 -0.043251283 0.39146307 -0.09139295 0.58592546 -0.32550701 -0.21752328 0.38722324 -0.36985275 0.20911987 0.39123586 0.104234084 -0.17777671 -0.07028577 -0.06447605 -0.6992079 0.2004429 -0.040441047 0.24708685 0.34338522 -0.181669 0.9964691 0.1536304 0.46960562 0.08049944 0.5358283 -0.51748043 0.26211855 0.35641724 0.06303432 -0.38353628 -0.28294593 0.595672 0.8368247 -0.80977476 0.46679604 -0.02702942 -0.46462846 0.6316207 0.31053597 -0.3242155 -0.66591555 0.72516805 0.11743274 0.082670204 0.69255567 0.049837444 -0.05567925 0.40941155 -0.54795486 -0.26975957 -0.0154353 0.45212877 -0.7182145 -0.055454396 0.44750446 -0.6382685
62 0.17028296 0.55822176 -0.50792676 -0.061249338 0.38270217 0.4078855 0.26862422 0.20712952 -0.29267627 0.001066343 0.68108404 0.054863162 -0.56829274 0.056829244 -0.14894241 0.35345462 -0.0041565434 -0.4347038 0.033951297 0.096567124 -0.56988704 -0.6946645 -0.49689242 0.042455543 0.052185256 0.5228766 0.45992237 -0.134614 0.28558317 0.5707266 -0.29318684 -0.040060442 0.2881076 0.056043897 -0.02580876 0.44493434 -0.3241252 -0.34282234 -0.28976762 0.41731042 0.4057746 -1.2859318 0.43667844 -0.5057725 -0.4238375 0.06935131 -0.4534624 0.24206027 -0.47185755 0.86705375 0.07858212 0.07464437 0.13506995 0.18640432 0.16609626 0.49448368 -0.3987667 0.004558686 0.57289404 -0.2190902 -0.5093821 -0.1437583 0.549308 -0.90552604
185 -0.34262654 0.6578329 -0.6498276 0.14199965 0.010007063 0.04278282 -0.8285416 0.009114949 0.2243352 0.1777384 -0.28175157 0.8784628 -0.18791254 -0.11122359 0.4790794 -0.026738953 0.06510469 0.32763132 0.25555468 -0.024751369 -0.22054443 0.050218523 -0.7122108 0.13674796 -0.08339054 0.38996625 0.36366647 -0.13197148 1.1635189 0.2643842 0.33207607 -0.011448759 0.35838267 -0.48100173 -0.0053859386 0.32206458 -0.13758075 -0.5233679 -0.20088945 0.47903794 0.6601911 -0.6085281 0.2875344 -0.080068976 -0.4741566 0.2492919 0.21116425 -0.22496405 -0.49962798 0.6546914 -0.06868439 0.05021973 0.24858345 0.16486534 0.08340078 0.4042975 -0.64532983 -0.2526514 -0.15282674 0.3957626 -0.9200875 0.04600786 0.49944335 -0.46816266
145 -0.094452605 -0.159074 0.04336288 -0.31154674 0.5638865 0.07792881 0.12601614 -0.4158676 0.10096651 -0.25682363 0.03077581 0.08114815 -0.43867725 0.8247002 0.23411272 0.5082934 -0.025747932 -0.013714745 0.11263675 -0.15786396 0.20705673 0.7623811 -0.11486005 0.52921534 0.0666911 0.5010216 0.64717394 -0.0037677563 0.05267274 0.43210077 -0.40850675 0.3604526 0.24338168 0.03906906 0.6063522 0.62862253 0.20681667 -0.16477393 -0.059318986 0.51953167 0.2511437 -1.0125664 0.30459952 -0.4408023 -0.2997256 0.18117589 0.012984055 -0.4386936 -0.09867241 0.42287552 -0.41426122 0.047088154 0.17091468 -0.72283643 -0.40730408 -0.27748147 -0.18475497 -0.057950646 0.7012432 -0.5521023 -0.23812701 -0.2425856 0.007993944 -0.11625966
123 0.029644907 -0.11558682 -0.10174971 0.16905843 -0.060728587 0.14830035 -0.0041575725 -0.6012861 -0.25011304 0.011830658 -0.2355614 -0.1470569 0.07286951 1.0465353 0.24381289 0.09703086 -0.4674356 0.12803957 0.009911304 0.3342462 0.1891332 0.50865406 -0.19009522 0.5007104 0.28367373 0.38828585 0.7100545 0.0018587344 0.08901406 0.48656094 -0.3298057 -0.25214493 -0.38212672 0.28722328 0.030793514 0.3603711 0.25012726 -0.4777331 0.014979537 0.24647078 0.41206896 -1.0758997 0.20401305 -0.45118552 -0.0352947 0.43776754 -0.12142356 -0.62214184 -0.00018969367 0.71149915 -0.6938 -0.2611337 -0.05771127 -0.40093085 -0.3684758 0.09944789 -0.22674477 0.34619558 0.5718895 -0.028213253 0.015948813 -0.24097957 0.32669044 -0.62818444
94 -0.33760825 0.48363706 -0.28191134 -0.08715567 0.25097352 0.04703987 -0.0052614873 -0.1269522 0.5242063 -0.08638204 0.5233192 0.4569806 -0.33081037 0.25894973 -0.034043215 0.34063223 0.043772787 -0.24878384 -0.05867615 -0.31078327 0.30524337 -0.09350181 -0.4445 0.40023583 0.009834778 0.8361374 0.3633558 0.27099887 -0.27819344 0.041010447 -0.33544934 0.42177045 0.28530058 -0.6942849 0.036613215 0.40408614 0.22858198 -0.6351849 -0.09358372 0.78840274 0.5473403 -1.2704575 -0.17088987 -0.07582702 -0.027494317 -0.14146136 -0.47734886 0.0864521 -0.61565644 1.0461578 -0.071132936 0.2131593 -0.13695449 0.17293465 -0.07653451 0.26878658 -0.2897814 -0.32071894 0.9342543 -0.21180648 -0.0014021544 -0.36578608 0.014099696 -0.82420236
247 -0.1595208 0.105934665 -0.09229118 0.11497309 0.1839537 0.29824433 -0.14179185 -0.4926322 -0.81401914 0.60449266 -0.21372154 -0.38169688 -0.3222488 0.37119323 0.7310504 -0.18836838 -0.50271904 0.9080441 -0.68322766 0.13795075 0.6381477 0.6061599 -0.43257266 -0.10032113 -0.06870437 0.05849399 -0.037542455 -0.28302512 0.23707718 0.26764253 -0.45245245 -0.29592288 -0.019984314 -0.15119092 -0.42594352 0.2691055 -0.1265813 -0.21274547 0.09669727 0.5265004 0.5687214 -0.55727744 -0.23873502 -0.033372562 0.131908 -0.5388585 -0.4453246 -0.114461705 -0.34299663 0.5866382 -0.19718325 -0.3983924 0.39767665 -0.4332778 -0.5305932 0.096429564 -0.13376294 0.17186466 0.71379095 -0.092259 -0.33385888 -0.4752197 0.8701412 -0.25195807
164 0.15885523 -0.21407247 -0.3412175 -0.03968294 0.72251433 0.12125493 0.25999573 -0.2110728 -0.24218942 -0.10559222 0.12329668 0.14937463 -0.7206207 -0.13210562 0.4625637 -0.5323739 -0.28678614 1.0011016 -0.9229823 0.40827596 0.40832812 0.079532444 -0.9699886 0.094568215 -0.13786225 0.116527066 -0.034835923 -0.28008428 0.47375777 -0.4999347 -0.08142379 0.107311346 -0.4883489 -0.1373177 -0.34104353 0.07227144 -0.14938045 -0.498102 0.09112059 -0.037624896 0.65456164 -0.8896556 -0.055453334 -0.063786 -0.031857498 -0.06915617 -0.03885797 0.14919293 -0.6316535 0.31281307 0.41769546 0.40579587 -0.06317156 -0.70342815 -0.39517027 0.5250435 -0.1225722 0.0030653304 0.8794877 -0.057166997 -0.38216406 -0.03935077 0.69446963 -0.32035726
7 -0.5264287 0.8354391 -0.202061 0.17190224 -0.20713112 -0.07043216 -0.79221976 -0.08994083 0.22204132 -0.20198923 -0.2975302 0.854559 -0.2504154 -0.18426162 0.79941547 0.19307148 0.090904154 0.35639045 -0.2453277 -0.091855 -0.31206542 -0.13568129 -0.84586596 0.19736275 -0.19583191 0.40537533 0.36736783 0.07543014 0.82658833 0.37664726 0.4382759 -0.04324165 0.3856544 -0.3267876 0.12573647 0.1708877 0.11543402 -0.6284551 -0.11264692 0.5108613 0.21503735 -0.43931836 0.6735946 -0.3124912 -0.21345621 0.1865724 0.35248974 0.14168954 0.05594565 0.6464991 0.14758459 -0.06065906 0.038152564 -0.29072598 0.07430096 0.2186991 -0.6676356 -0.032244325 0.17906089 0.46981853 -0.5468446 -0.0501633 0.7258043 0.050324652
110 -0.22096203 -0.07556825 -0.42902973 -0.29142526 0.27322966 0.033873238 0.24461746 -0.7089964 -0.504913 0.14765549 0.1270319 -0.30350104 -0.6499368 0.11898934 0.26987547 -0.6311995 -0.29862773 1.0034595 -0.7854374 0.40353864 0.5262203 -0.0065393965 -0.6683994 -0.09941537 -0.28036875 0.24163711 -0.029021157 -0.29621065 0.8397616 -0.09605228 -0.077461116 0.1641732 -0.2649358 -0.020798622 -0.4071821 0.34196016 -0.33880308 -0.5367492 -0.14431599 0.1836243 0.7030669 -0.65678155 -0.2583181 -0.38984436 0.08264084 -0.20811437 -0.279826 0.4434156 -0.3819345 0.5279868 0.11320215 0.31543314 -0.24322395 -0.3008353 -0.5922721 0.19414756 -0.250267 0.39414737 0.84474355 -0.07552054 -0.38851902 -0.1676882 0.5174745 0.082452804
20 0.24866752 -0.11867863 -0.110707544 -0.11540729 0.25262865 0.12155817 0.12804821 -0.48024595 -0.038680017 -0.36014333 -0.2305275 0.24130756 -0.2841554 0.80743486 0.23391083 0.34358153 -0.50619143 0.23014706 0.13037062 0.1774967 -0.018451642 0.78352755 -0.10259981 0.48334178 0.20593695 0.31575933 0.6900968 -0.088707715 -0.31751212 0.520093 -0.17181863 0.16339964 -0.010533155 -0.16722438 0.38598675 0.6437498 0.21921362 -0.30404788 0.0022019846 0.31786254 0.29075113 -0.8667873 -0.08688963 -0.3131807 -0.20504916 0.29096273 0.020262925 -0.35192886 0.06361033 0.38898295 -0.77215266 -0.08417115 0.13305704 -0.2273355 -0.6559684 -0.042213373 -0.3866762 0.39330563 0.7511348 -0.040952466 -0.08093129 -0.38533202 0.36297452 -0.6196776
107 -0.16804492 -0.21510619 0.04417568 0.0012500293 -0.2219564 0.25182554 -0.17104842 -0.111622475 -0.8516418 0.09061686 -0.052581597 -0.08580795 -0.63153803 0.27630922 0.28409138 -0.13602427 -0.2967952 0.87589693 -0.6472181 -0.43850932 0.0558852 0.109391816 -0.5575884 0.18902577 -0.25849524 -0.1961327 -0.3187069 -0.36735898 1.0722398 0.13287123 -0.11080294 0.26971784 -0.32227352 0.09550574 -0.3128905 0.17110093 -0.4908216 -0.42471513 0.23631842 0.20534658 0.9868567 -0.51907724 0.13363384 -0.14047927 0.027330069 -0.44661635 -0.21405974 0.2621134 -0.60970336 0.3493716 -0.1329584 -0.0147051895 0.10822561 -0.27479398 -0.44199553 0.06399239 -0.045724068 0.3660643 0.95274734 0.070067815 -0.15885286 -0.46186242 0.4586239 0.04015278
75 -0.16680095 0.55102843 0.47275528 0.46533683 0.45410126 -0.52118963 -0.18567324 0.010131801 0.87208176 -0.28005245 -0.071558684 -0.004921282 -0.27260423 -0.6040674 0.59040755 0.097653985 0.17790258 0.72705317 -0.52710277 0.120278604 -0.27137148 -0.018252065 -0.12645005 0.34137306 0.6258701 0.21488746 0.51543057 -0.68196416 0.57892597 -0.07673186 -0.09442053 0.2534254 0.071402565 -0.08446352 0.16466317 0.45035926 -0.422498 -0.79369044 -0.14124642 0.16469014 0.7234697 -0.17233294 0.4389631 -0.1752585 0.28151536 -0.2574741 -0.18783845 -0.25644144 -0.35192502 0.31538284 0.18834893 0.32493022 -0.145716 -0.672861 -0.01000484 -0.352472 -0.34829485 -0.12871218 0.8660511 0.4361366 -0.5320409 -0.020852458 0.907464 -0.1716047
225 -0.04537825 0.011010407 -0.1472304 -0.35865888 -0.045853447 0.3779586 -0.06911796 -0.6426998 -0.72162354 0.50058854 -0.1391451 -0.3959124 -0.5082024 0.019731382 0.35100776 -0.3848144 -0.41331816 0.81739926 -0.6591657 -0.036704842 0.4308584 0.007749622 -0.6476256 -0.006229894 -0.066280775 0.07104712 0.020914253 -0.30003807 0.47040936 0.34114125 -0.38937917 -0.20338145 -0.49360558 -0.018525664 -0.23801544 0.31094754 -0.08193281 -0.24240172 0.0035409306 0.12881158 0.61553156 -0.3445629 -0.019919101 -0.1709882 -0.27868146 -0.61755866 -0.3628608 0.013330931 -0.555808 0.5670901 -0.19333023 0.063463286 0.453591 -0.47369632 -0.32648665 -0.17981787 -0.28493917 0.36772332 0.82331425 -0.061653502 -0.34052238 -0.1941093 0.54858315 0.18513696
158 0.2597928 -0.18558581 0.30921635 -0.013396638 0.11838951 0.41225177 0.11215173 -0.06475396 -0.2955711 -0.030751746 0.3012221 0.53345746 -0.65145016 0.090655506 0.12260539 -0.15766026 -0.4140888 1.0326617 -0.3591766 -0.124626234 0.060454484 0.4904299 -0.2576003 0.32743046 -0.532561 -0.39171842 -0.10660102 0.056960713 1.0066578 0.09169008 -0.4427725 0.323165 -0.22938967 0.16925152 -0.028363423 0.43493262 -0.59265965 -0.40277055 0.38776013 0.42647052 0.77540684 -0.2535094 0.3014873 0.07151071 0.16036117 -0.608084 -0.0039137457 -0.023588702 -1.0562817 0.5212406 0.26137674 0.3810486 -0.134126 -0.3207783 -0.20764416 -0.023583382 -0.271698 0.21951844 1.0787735 0.1097925 -0.32748514 -0.44196892 0.6148598 -0.10320086
122 0.1916345 -0.020496929 0.068519 -0.01584974 -0.22957358 0.30706725 0.098271094 -0.432539 -0.1501045 -0.010190083 -0.3724862 0.018374693 -0.3591325 0.7402023 0.40018073 0.03665699 -0.3145639 0.1326446 0.29591385 0.3207663 0.14992651 0.045074712 -0.3106859 0.637652 0.27330706 0.2903257 0.52562845 -0.2716229 -0.12951495 0.4859341 -0.26972494 -0.3063086 -0.10270719 0.07060144 -0.29494056 0.47386816 -0.22241957 -0.317821 -0.15625902 0.018911103 0.37144357 -1.0791668 0.4784759 -0.6784795 -0.35896844 0.0076831877 -0.029579543 -0.4225404 0.17335607 0.48986477 -0.6807697 -0.09942631 0.17908704 -0.032532193 -0.5547379 -0.15239221 0.051038638 0.15811872 0.822082 0.14021525 0.15872322 0.11344388 0.26278564 -0.68782103
96 0.08947232 0.23095664 -0.028057424 -0.20887572 -0.077908896 -0.06880605 0.03617732 -0.49146926 0.57035565 -0.079910934 0.19097607 0.15773045 -0.24724023 0.056250002 -0.007035404 0.3127414 -0.06492486 -0.2912112 0.08175333 -0.1826339 0.11292088 -0.022310548 -0.19157901 0.6722911 -0.27186093 0.89081585 0.17671625 0.2514414 -0.18495734 0.33174768 -0.43169114 0.4178612 0.104428194 -0.43735516 0.0060714735 0.5426121 0.04078591 -0.08303924 0.297292 0.86188394 0.641849 -1.2347796 0.1772444 -0.005716075 -0.77091914 -0.24384283 -0.31226385 0.011530468 -0.20370811 0.69702053 -0.008497511 0.095538676 -0.22971801 0.34760112 -0.19232358 0.4668111 -0.23845282 -0.4143673 0.68581814 -0.05504334 -0.3650871 0.010913569 0.3808665 -0.326759
220 0.10173754 0.20492509 0.51069844 0.31805605 0.5440078 -0.35127035 0.10888696 0.11418227 0.4150389 -0.028866136 -0.31132 0.21925451 -0.29753253 -0.55500555 0.3119196 -0.040366292 0.21362439 0.73267496 -0.94727725 -0.00890226 -0.31095982 -0.15501855 -0.10563214 0.28393093 0.16763817 0.13756105 0.14287698 -0.66758084 0.75974107 -0.04657175 0.1289455 0.29884267 -0.29169586 0.11756519 0.19389716 0.56431526 -0.09826607 -0.34501347 -0.02190489 0.4533176 0.7409306 -0.5259317 0.13746524 -0.49322495 0.2448082 -0.38025418 0.069470294 -0.23984888 -0.4477022 0.31592926 0.25160563 -0.017263712 -0.42837703 -0.6172371 0.25507393 -0.45753255 -0.3249041 0.067681834 0.9388831 0.07392201 -0.23113126 0.38493687 0.49941066 0.23799849
8 0.016916147 0.54554045 -0.21332265 -0.04779905 -0.3095885 -0.0007639207 -0.73665655 -0.1075055 0.39581624 -0.19661431 -0.21544465 0.84034956 0.10133779 -0.24250329 0.8610805 0.2838505 -0.33538964 0.0035489968 -0.21953796 -0.015243327 -0.21306431 0.019715987 -0.74103564 0.008749275 0.036517616 0.31411093 -0.05904489 -0.28527096 0.4990495 0.47832742 0.49701464 0.14225781 0.2019307 -0.14285794 0.40732425 0.32683796 -0.030376965 -0.8397451 0.12528346 0.35561806 0.62838316 -0.16584818 0.6732652 -0.493147 -0.47488493 0.08892045 0.20718716 -0.005391154 0.07110734 0.6385866 0.46084404 -0.21962686 -0.12253173 -0.22719812 -0.28698114 0.28075755 -0.4899783 -0.19170916 0.09893035 0.3335633 -0.59791994 0.29527184 0.6496493 -0.14861295
215 0.064861625 0.098920606 -0.07242078 -0.29624695 -0.17640582 0.107665315 -0.30907485 -0.32619342 -0.7218578 0.14068148 -0.14036967 -0.16359745 -0.21526659 0.21717219 0.395912 -0.085843176 -0.9091113 0.49344042 -0.43155488 0.033746637 0.4477768 0.17976677 -0.33714637 0.22117497 -0.058441244 0.1130247 -0.32295996 -0.6297098 0.4447126 0.3860126 -0.33505207 0.21868531 -0.37548977 -0.12084618 -0.2001701 0.10900363 -0.21984589 -0.13520053 -0.2083913 0.201121 0.6093447 -0.4422342 -0.02563184 -0.38658565 -0.010636939 -0.81263745 -0.2049502 0.13359906 -0.62928647 0.5593482 0.121025704 -0.026624784 0.3260327 -0.36869794 -0.36135724 -0.061198704 -0.20044222 0.44631666 0.83521914 0.010813078 -0.039710242 0.36947486 0.33890238 -0.12185565
205 -0.08088646 -0.059229836 0.1998749 -0.08816535 0.04866163 0.16086826 0.057753082 -0.107858114 0.46019706 -0.4331996 0.470638 0.2533524 -0.085993856 0.6378305 0.14833657 0.131782 -0.015923858 -0.114990935 -0.4169439 -0.1296642 -0.015103148 0.55786705 -0.010399658 0.60567147 0.19133815 0.87765235 0.67794454 0.24173744 -0.34278163 0.082719915 -0.5533861 0.49011505 0.33672342 -0.39930075 0.36087996 0.33954823 -0.16912067 -0.06112474 -0.06604777 0.7259072 0.47830796 -1.1593109 -0.03368369 -0.24726652 -0.6671327 0.05602612 -0.05636166 -0.21883263 -0.565795 0.82392246 -0.23641914 0.0033610684 0.18332687 -0.10748798 -0.36270475 0.14259534 -0.3017684 -0.16815077 0.77908057 -0.18342778 -0.29541358 -0.38939133 0.121924564 -0.56195265
115 -0.43108872 0.86757475 0.028172188 0.39984262 -0.0838085 -0.12409346 -0.5512622 -0.3506727 0.44810647 -0.3502983 -0.21397485 0.5578115 -0.24171786 -0.0061897654 0.9781059 0.16945644 0.0739564 0.4228029 -0.24487568 0.13410655 -0.25350788 0.07708341 -0.37894624 -0.025396505 0.40048772 0.4232159 0.45824352 -0.021722268 1.20229 0.40781695 -0.046204217 0.3862126 0.40415084 -0.23025425 0.64021903 0.5437675 -0.04270419 -0.5362851 0.030690381 0.2560106 0.38630947 -0.4423147 0.52638704 -0.32249027 0.258567 0.086332306 -0.013642928 0.18928204 -0.35252056 0.4347313 0.2303113 -0.39665684 -0.28707483 -0.77597237 0.10351279 0.33127958 -0.58122367 -0.002011288 -0.22433494 0.4218369 -0.2745558 -0.21541747 1.0155524 -0.11951667
156 0.64215225 -0.19935143 0.45355186 0.19334915 0.18673065 -0.15053423 -0.31457666 -0.32545298 0.03611361 0.02632183 0.3239024 0.11667882 -0.4066438 -0.0889139 0.07672963 0.078880556 -0.42209014 0.7350447 -0.38485327 -0.25860983 0.40215492 0.49074087 -0.5543229 0.3154353 -0.24222334 -0.048781395 -0.021694519 -0.6525625 0.5359423 0.5897537 -0.15930416 0.4163801 -0.2055749 0.25678256 0.03979438 0.3212194 -0.3080091 -0.5874067 0.45281735 0.16850045 0.5223806 -0.14749235 0.29110286 -0.41246045 0.24700786 -0.79108006 0.04906097 -0.079865836 -0.90632206 0.6863417 0.102362655 0.011967469 -0.5486449 -0.23208588 -0.007633851 -0.19305584 0.008381443 0.41662827 1.051986 0.008887755 -0.029933462 0.008629196 0.5888552 0.22583333
105 0.08994594 0.2192883 0.6037819 -0.20749566 0.06216615 0.23593125 -0.31940055 -0.25669914 -0.76323086 0.14725374 -0.17733951 -0.15838805 -0.474743 0.21607241 0.31745523 -0.029931208 -0.5881248 0.57214284 -0.27678818 -0.14771813 0.23775645 0.36704227 -0.5026578 0.13708974 -0.032699063 0.116800115 -0.31110728 -0.5932176 0.9366978 0.24598901 -0.106193714 0.26744092 -0.34534854 0.22262779 -0.0770154 0.12748982 -0.50938725 -0.63536096 -0.11455506 0.01616503 0.48085976 -0.4161206 0.22230712 -0.50179935 0.12177923 -0.58157414 0.033828814 -0.08156839 -0.56025755 0.5374278 0.2971956 -0.19401042 0.092104144 -0.06990235 -0.16540746 -0.26741326 -0.058444206 0.08720012 0.82023764 -0.062403314 -0.1609215 -0.15348981 0.21477142 0.046080053
19 -0.024421558 -0.054871257 0.027277336 0.0049912147 -0.031971402 0.21898371 0.10156955 -0.75614333 0.1408852 -0.17857014 0.12538211 0.19924882 -0.1899844 0.6012481 0.28331476 0.2129334 -0.43827704 -0.103374295 0.042492993 -0.12618226 -0.01250247 0.54542184 -0.25779194 0.66261375 0.094281875 0.20032054 0.8587445 -0.28820193 -0.32463118 0.30161506 -0.31970182 -0.00084873254 -0.16524613 -0.03592139 0.08610503 0.5890967 -0.12676808 -0.25066963 -0.43470073 0.4937242 0.35475397 -0.99168414 -0.09523474 -0.56569666 -0.37104136 -0.12461282 0.13332628 -0.27365732 -0.005342527 0.25055853 -0.4853893 -0.64265126 0.046923522 -0.24565569 -0.6719779 0.035840683 -0.38845807 0.36765575 0.6805408 0.06421495 -0.18356033 0.18813802 0.18124452 -0.7061626
48 0.5319482 0.16955058 0.15849768 -0.16810437 -0.0020291763 -0.33743635 -0.3863617 -0.14994113 0.33411476 -0.33018312 -0.47506136 -0.05379308 -0.9124876 -0.012549838 0.15795003 0.3021751 -0.35660988 0.288054 -0.27502748 -0.4583038 0.25721195 0.38472602 -0.16482642 0.39422882 -0.14622337 0.050383877 0.074154146 0.01738094 0.42182377 0.3623953 -0.5713054 0.19747481 0.083921656 0.068228796 0.44502002 0.30581623 -0.15737288 -0.6420997 0.22581333 0.5625716 0.29755557 -0.34417307 0.22633417 -0.22660117 -0.04762346 -0.30763316 -0.049697928 -0.23385245 -0.7256947 0.46039137 -0.12436498 -0.17312056 -0.45874485 -0.4119575 0.33214554 -0.31487244 0.074863546 0.46302363 0.8252539 0.21284218 -0.24322318 0.49015424 0.15343665 -0.1691654
69 0.117262326 0.6807729 0.020588381 0.012072222 -0.1820358 0.2939625 0.07654169 -0.21574122 0.44896078 -0.259848 -0.8775886 0.13972661 -0.2686015 -0.06271326 0.5937991 0.2678695 0.19929875 0.24397339 -0.42289594 0.10038011 0.030353518 0.050037444 0.1889777 0.17046669 0.15726352 0.46998852 0.23290065 -0.5309973 0.7977876 0.6676463 -0.14196216 0.12105301 0.004697483 -0.21235749 0.42491782 0.26041302 -0.08368838 -0.6162121 0.09829406 0.21538255 -0.08120186 -0.56391585 0.53515077 -0.52900153 -0.4771364 -0.26405218 0.06998999 -0.10650294 -0.5912581 -0.023743281 0.20515348 -0.4313977 -0.13540794 -0.4351479 0.24714673 -0.14377938 0.010394244 0.030041205 0.59256124 -0.11201116 -0.18395437 0.3775133 0.5845477 -0.01489371
35 0.45570236 0.48520726 0.3195031 -0.22984675 0.17629248 -0.0015867612 -0.11291083 -0.08726038 -0.3505049 -0.32052553 -0.79943204 -0.07207738 -0.103799894 -0.10517196 0.3544665 0.35251406 -0.0017002404 0.71554947 -0.35920587 0.013029297 -0.39039332 0.123858005 -0.24248399 -0.055032518 0.07653357 0.18077852 0.017323764 -0.33941442 0.5894716 0.72931665 0.045928933 0.23682739 -0.20913443 -0.43211883 0.24473175 -0.073248476 -0.2270993 -1.0019585 0.43505892 0.23924519 0.67466426 -0.5587475 0.4148439 -0.46715936 -0.020243444 -0.58637756 0.24289355 0.059759315 -0.16154172 0.21358629 0.15785655 -0.10552271 -0.19793287 -0.010172223 -0.22054897 -0.5095336 -0.37715906 0.108347446 0.46866006 0.16474757 -0.16882318 0.009706107 0.29217178 -0.026353618
66 0.11427142 0.26667556 -0.15019654 0.02894566 -0.07466221 -0.012108246 -0.13697532 -0.26476207 -0.2995492 0.12034401 -0.27411655 0.16629866 -0.7225649 0.5929689 0.4059886 0.54393065 -0.30501205 -0.03758191 0.081843555 -0.080448575 -0.29531592 -0.28483108 0.08654251 0.23658869 0.33095345 0.6614835 -0.16398512 -0.18918994 -0.0688583 0.5979314 -0.33068177 -0.08954731 -0.39594933 0.08137617 0.0488692 0.3610034 -0.3447877 -0.33882695 -0.3337012 0.35303566 0.3561138 -0.97478795 0.4939204 -0.7314564 -0.28798783 -0.248704 -0.21612103 -0.5915061 0.16848798 0.31057352 -0.34361804 0.20970671 -0.25857773 -0.09645386 -0.08729173 -0.12084438 -0.31651697 0.111898914 0.36348495 0.030350018 -0.3109304 0.06433337 0.094389744 -0.6863491
11 0.09661966 0.54145324 0.61653984 -0.20038223 -0.32401785 -0.02158164 -0.047655743 -0.10557471 -0.2624739 0.071446024 -0.5400528 0.25267062 -0.32818016 0.0755521 0.40593714 0.2820791 0.10446444 0.087597 -0.2001407 0.18317057 -0.22790673 -0.34190577 -0.267528 -0.19907282 -0.04052228 0.07293038 -0.16915663 -0.47376972 0.16147989 0.6161544 0.20348035 0.26005864 -0.15155064 -0.11184133 -0.0051414524 -0.14633052 -0.30050626 -0.8418569 0.0976128 0.6860343 0.52559876 -0.74426836 0.7086551 -0.6146539 -0.2328731 -0.20917456 0.37537777 -0.29110092 -0.04263972 0.10258296 0.03809374 -0.69638354 -0.2355133 0.19636181 -0.054437872 -0.0117555875 -0.44153553 0.072372556 0.2790156 0.45550266 -0.52759826 0.1381313 0.56515473 -0.46539244
117 0.0026861627 0.61647534 0.10667639 -0.015840698 -0.110879526 -0.28054106 -0.3584337 -0.26950118 0.573548 -0.14869139 -0.6564579 0.4817152 -0.41267103 -0.5127766 0.6596183 0.520323 0.1309035 0.5400409 -0.24506943 0.0008134971 -0.03248171 0.046968 -0.3321452 0.29741678 0.48527512 0.31165278 0.041723214 -0.56014377 0.80749035 0.5038868 0.19803455 0.25195527 0.5910707 -0.21020582 0.5606905 0.28319904 -0.13763492 -0.51518136 -0.032021035 0.3330608 0.43909863 -0.268857 0.48600864 -0.68456465 -0.35807925 -0.13522036 -0.10631495 0.14845192 -0.25567177 0.05305979 0.24746075 -0.47492376 -0.16871928 -0.5197957 0.070437066 0.17547666 -0.14406644 -0.1595393 0.2122885 0.17525387 -0.063684575 -0.03805296 0.66435623 -0.082508594
98 0.28660882 0.42261976 -0.21772416 -0.27214706 -0.1010819 0.17028409 -0.20792545 -0.62318504 0.35339263 -0.22918579 0.027535042 0.44978887 -0.2398793 -0.12246152 -0.12217773 0.15450586 -0.37800106 -0.030253937 0.634583 -0.18144336 0.1393395 0.33593342 -0.31645858 0.11922785 0.04327275 0.8900839 0.31932315 0.19197322 0.14028457 0.64757043 -0.36416042 0.61454976 0.054027736 -0.410045 -0.11016325 0.1747484 0.07637651 -0.21936494 -0.064784385 1.0013368 0.47312972 -0.863953 0.06142703 -0.42783356 -0.62481344 -0.23197497 -0.16617818 -0.3614747 -0.21477187 0.14570893 0.39370316 -0.23540361 -0.03220682 -0.07354983 0.19892085 0.38886428 -0.16828574 0.1629806 0.5714221 0.08906066 -0.58685446 0.29767227 0.1800332 0.162121
43 0.025640465 -0.081419155 -0.094346836 0.08411392 -0.18656453 0.46861637 -0.26180243 -0.30756018 -0.16876855 -0.14332539 -0.22391924 -0.12725383 -0.57183045 0.12152221 0.32561097 0.7934529 -0.47580975 0.2964705 0.18787716 0.06500946 0.2534236 -0.16734236 -0.024976041 0.5099869 0.30388764 0.41178906 0.100035734 0.036906887 0.090035 0.32036337 -0.47920194 0.29444164 -0.24964719 -0.05564709 0.45733437 0.4045467 -0.01006249 -0.18301393 -0.087422885 0.3965549 0.49235344 -0.8750698 0.4311569 -0.66919285 -0.24469435 -0.40515122 0.34582502 -0.32072482 -0.17176683 0.24643044 -0.1607421 -0.06419416 -0.22827016 0.20286758 0.032104235 -0.15437682 -0.08182402 0.7318886 0.46815977 -0.070770055 -0.15355846 0.14296414 0.12609673 -0.5128322
46 0.29987687 0.101614565 0.05039217 -0.5865545 -0.13715103 0.22787884 0.15317877 -0.34609702 0.32587805 -0.39879984 -0.14967224 -0.17881402 -0.5088215 0.21296203 0.10731424 0.32230866 -0.90172076 0.26053402 -0.16603912 -0.55166143 0.20254833 0.37320086 -0.18312985 0.3775946 0.28989384 0.4600382 0.041986197 -0.19542201 0.549217 0.384588 -0.23995909 0.2424911 -0.2898626 -0.5027559 0.1710587 0.36856923 0.15513673 -0.38100493 -0.0349974 0.52411366 0.24220347 -0.4424865 0.23024026 -0.5337394 -0.22981048 -0.5210565 0.096101694 -0.07135726 -0.3382018 0.29775628 0.079857305 -0.44585145 0.08899808 -0.11559422 0.21239418 0.16616127 0.28511116 0.5010103 0.48564807 0.31568936 -0.398064 0.09872524 0.4871429 -0.17414282
12 -0.067638986 0.99995255 0.52726036 -0.23990665 -0.42094943 0.17424156 0.006698067 -0.18059589 0.057325266 -0.033652406 -0.48731327 0.36329648 -0.2922133 -0.061658513 0.14364065 0.5248552 -0.11384451 0.058640424 -0.37581173 -0.018151658 0.014334557 -0.068334706 -0.08300014 -0.13405281 0.040466 0.06561109 -0.13912587 -0.40536335 0.20817634 0.7298221 0.16042525 0.34716585 -0.519688 -0.17522746 0.17075905 0.17009558 -0.16216657 -0.4977595 -0.25110534 0.29730418 0.19002998 -0.99300355 0.712065 -0.6659831 -0.62550336 -0.19602937 0.18873261 -0.3018411 -0.07066039 0.32976645 -0.42179757 -0.21793865 -0.15459077 -0.14035514 -0.3578179 0.0627322 -0.39460576 0.12696555 0.27256086 0.13763253 -0.4891587 0.27951506 0.5245222 -0.40092364
17 0.06520765 -0.11253675 -0.047599863 -0.3159844 -0.29315025 0.1889601 0.122560374 -0.5912169 0.12439332 0.28046867 -0.03884386 0.37038642 -0.44683576 0.058197595 0.27593186 0.6699043 -0.4905202 0.45769766 0.029360017 -0.18250403 -0.04408453 0.32539517 -0.013999226 0.47693357 0.21208192 0.29761797 0.28067258 -0.03168485 -0.26776093 0.5780289 -0.21333969 0.11299961 -0.20505396 -0.09915924 0.08906995 0.385674 -0.02651738 -0.3125682 -0.31605098 0.80183613 0.10826658 -0.94031864 -0.083928816 -0.5504627 -0.60194606 -0.32203752 0.31518495 -0.14427817 -0.34326726 0.37552643 -0.10159547 -0.47522637 0.07841861 -0.033810973 -0.11131457 -0.2526464 -0.19684723 0.35853976 0.37801546 0.31344408 -0.423234 0.31973425 0.053435143 -0.35095048
100 0.028205931 0.29845637 0.10725944 -0.46370053 0.11118523 0.32874328 -0.37461784 -0.45718426 0.0027840326 -0.47822466 -0.6774582 -0.031252775 -0.100390345 -0.266386 0.6274923 0.27067444 -0.0017818621 0.256411 -0.14843266 -0.18505865 0.012708775 0.13139023 0.24221975 0.2543578 0.33052668 0.71795166 0.12635048 -0.5922528 0.6175415 0.6635349 -0.3291395 0.30578178 -0.093342 -0.59696674 0.15034755 0.28161904 -0.042231012 -0.34846666 0.24717396 0.38818213 -0.03932309 -0.40905052 0.5311193 -0.37373814 -0.2390469 -0.26646802 0.17604621 0.09752648 -0.533881 0.28564996 -0.1968387 -0.46352544 -0.2974449 -0.6430369 0.14892067 -0.17638834 0.15251008 0.23964441 0.68838817 -0.084576316 -0.2926591 0.14849117 0.16956978 -0.27757454
38 0.03611037 0.46765214 0.4839014 -0.16280665 -0.28706127 0.09889715 -0.02163884 -0.41546234 -0.119539194 -0.0664148 -0.43213558 0.3502143 -0.25775975 0.022829626 0.23477572 0.77133226 -0.29968956 0.033768583 -0.36648834 0.18500681 -0.25746876 -0.26653302 -0.045160513 -0.08397809 0.19433051 0.40679917 -0.21914138 -0.18973711 -0.03944861 0.59002364 -0.20779236 0.17298675 -0.1957812 0.17076077 -0.17010005 0.24777015 -0.40850022 -0.74702114 -0.2767665 0.3010812 0.21752417 -1.0520699 0.77628714 -0.66760147 -0.33260795 0.031590875 0.186838 -0.42465857 -0.023152215 0.14670679 -0.21211427 -0.09707216 0.17636311 -0.028730648 -0.13798451 0.069088385 -0.58865756 0.24610107 0.3579259 0.07072566 -0.38904583 0.2817278 0.22072302 -0.6614141
16 0.22604148 0.14582862 -0.08590248 -0.05088593 -0.41396913 0.23486638 -0.0034037938 -0.72567 0.38613373 -0.4328395 -0.069258705 -0.070402525 -0.32130364 0.28799778 -0.07657476 0.38481975 -0.41343883 0.08917958 0.15447624 -0.27323136 0.20788947 0.13622737 -0.19791292 0.038434926 0.34840676 0.332584 0.10365713 0.064867586 0.22404799 0.60943407 0.076600984 0.48456183 -0.22746381 -0.4322522 -0.04785513 0.53600883 0.00916108 -0.40779766 -0.36530527 0.78123224 0.3103484 -0.7274834 0.07561806 -0.19250739 -0.62155414 -0.55963993 0.014825104 -0.057952665 -0.26051208 0.14465523 -0.076322906 -0.42426327 0.124362014 -0.05419303 0.08546752 -0.01825982 -0.24536559 0.22242287 0.7170935 0.41204548 -0.659009 0.3114346 0.06522036 0.0324849
45 0.17901845 0.09985428 -0.09361286 -0.41462502 -0.3262202 0.383461 -0.06431635 -0.67846876 -0.12437917 0.0099813435 -0.13062851 -0.06550295 -0.3955098 0.32079947 0.2593964 0.1765004 -0.92276525 0.27816838 -0.26455086 0.025347343 0.29088497 0.13886341 -0.46133414 0.27543458 0.53820133 0.4159412 -0.17906086 -0.33995697 0.6095204 0.3712675 -0.54788274 0.4319562 -0.29490274 -0.22689115 0.3044725 0.49079406 -0.23185675 -0.19126149 -0.15631261 0.6094448 0.49271384 -0.5497017 -0.021725481 -0.36456397 -0.27421066 -0.75130844 0.16440846 -0.0758571 -0.41268188 0.4042789 -0.2525613 -0.013432197 0.10116012 -0.06883671 0.040757354 -0.07765643 0.21568495 0.37575033 0.28255475 0.22088692 0.217338 0.24059112 0.19918239 -0.38599637
194 -0.024993595 0.71235865 -0.6833406 0.31833443 -0.11700723 0.022275833 -0.704381 0.15740052 -0.07503921 0.18000513 -0.34602928 0.54509133 -0.3655752 -0.24074477 0.36296147 0.02126716 0.16540556 0.50851536 0.24272932 -0.14328481 -0.121750996 -0.06874935 -0.7146555 0.024566598 -0.2046751 0.45492125 0.38400507 -0.0092622135 0.9812821 0.11337348 0.40909705 0.03577289 0.57153046 -0.71825284 0.2996326 0.32283527 -0.16759944 -0.3548779 -0.23947464 0.42848247 0.84651494 -0.8824718 0.46498764 -0.13228412 -0.48961937 0.65413666 -0.14723906 -0.22093484 -0.55038726 0.60614556 0.06289171 0.31823456 0.26229233 0.42099708 -0.14288348 0.29576653 -0.5642961 0.08446628 -0.123864435 0.30970284 -0.6517924 -0.048131272 0.7618909 -0.7669297
168 -0.33056277 0.24405825 -0.30124554 0.17485796 0.79123485 0.14955878 0.3053043 0.039203577 0.32557955 -0.09506285 0.30238616 0.4679535 -0.6944634 -0.22735459 0.74628687 -0.6439115 -0.2813353 1.0473185 -1.0883515 0.48827577 0.25038397 -0.18392731 -0.7511973 0.08405407 -0.28221348 -0.08581938 0.33508733 -0.56814986 0.10581526 -0.11977952 0.20113823 0.5635951 -0.46987763 -0.19912732 -0.09628409 0.2168667 -0.025538241 -0.5759621 -0.07771135 0.23812284 1.1258516 -1.2065876 0.094316185 0.03594563 0.047065627 0.4625747 -0.13838483 0.19049619 -0.45927203 -0.09964074 -0.05740072 0.15447542 -0.10137028 -0.354605 0.16312361 -0.33367804 -0.17580459 -0.13072905 0.89447856 -0.18471622 -0.35708618 0.16334967 0.44736844 -0.035747573
136 -0.06439848 0.7777331 -0.036103025 -0.06737022 -0.16511154 -0.05419505 -0.8780752 -0.17496227 0.28342417 -0.043656074 -0.23898795 0.68720007 -0.32177457 -0.2789329 0.81141865 0.09297649 -0.16642188 0.19167961 0.249581 -0.12069224 -0.3538998 0.06986935 -0.75878096 0.088165775 0.13364923 0.5541076 0.1461914 0.030164594 0.4951191 -0.20330165 0.33604467 0.24107473 0.17129476 -0.17312235 0.080938414 0.67624414 0.028938938 -0.7512905 -0.012717254 0.60885155 0.41393012 -0.32287753 0.3781891 -0.37426066 -1.0224526 0.2020017 0.1494618 0.073281996 -0.26459724 0.7356019 0.3304538 -0.24495092 -0.15854967 -0.011110928 -0.11578174 0.51998526 -0.4313551 -0.10810249 0.12704885 0.081499435 -0.78542304 0.2249774 0.19065921 0.06108151
64 0.26625496 0.32857463 -0.32088587 -0.26978326 -0.039892122 0.21630819 0.15051842 -0.028866626 -0.36950216 0.059374668 0.15763585 0.024635913 -0.5013997 0.38550866 0.17034943 0.48544088 -0.1331042 -0.45784006 0.008591057 0.13342386 -0.32056606 -0.2080924 -0.29985422 0.45282966 0.15676336 0.39036936 -0.14738351 0.057577766 0.040389784 0.688133 -0.33339208 0.12258592 -0.08586421 -0.14246325 0.052952334 0.76301587 -0.4494381 -0.181608 -0.023478268 0.3130044 0.38617966 -1.3535675 0.57735795 -0.4772798 -0.3467541 0.2816016 -0.49212 -0.009741086 0.09489343 0.81356394 -0.019680804 0.03093696 -0.28788546 0.134674 0.20389347 0.15865974 -0.1298205 -0.07084437 0.651335 -0.024619782 -0.8816853 0.0919102 -0.10903297 -0.7506938
229 -0.20558125 0.21447846 -0.04127126 -0.28276488 0.81436074 -0.3682871 0.56375325 0.224515 0.36291274 -0.14913726 0.1921046 0.24784398 -0.33867818 -0.32538024 0.5632516 -0.30314338 -0.261614 1.1072474 -1.1502938 0.24318214 0.30085215 0.26760244 -0.83283114 0.067621924 -0.20691374 -0.055717845 0.37138918 -0.8761158 0.8053411 -0.16790035 0.21388398 0.1294632 -0.23692441 -0.28015357 0.17286439 0.40718967 -0.2378193 -0.39073274 -0.08441901 0.037545864 0.9193126 -0.9173562 0.24389753 0.04397282 0.15319046 0.15269136 -0.36345595 -0.068831906 -0.23331968 0.02123145 -0.23331307 0.12730663 -0.336588 -0.37600502 0.35140413 -0.097381264 -0.2930169 -0.114266984 0.90963703 -0.12243199 -0.35044676 0.13501422 0.44422078 0.017561896
213 0.04522176 0.19308464 0.07002482 -0.30660218 -0.35335708 0.26496062 -0.17202131 -0.62693983 -0.49418184 -0.14053689 -0.108703956 -0.20565559 -0.5517591 0.37638807 0.22812429 -0.22167844 -1.0312726 0.15860356 -0.19924693 0.39691368 0.10720399 0.14642428 -0.37028226 0.5755839 0.29446232 0.24691942 -0.09851206 -0.38026896 0.3485083 0.33525485 -0.27869615 0.11887659 -0.15898257 -0.3396311 -0.0915789 0.0044753505 -0.29494128 0.0707652 -0.3595593 0.4274152 0.30017793 -0.7227757 0.16404264 -0.41943192 -0.21336411 -0.6418982 -0.003255683 -0.20492886 -0.6468906 0.52303326 -0.14941041 -0.049044635 0.28509098 -0.31284264 -0.119979344 -0.19477817 0.41744375 0.6419736 0.6099272 0.19285126 0.033050347 0.15315802 0.44055113 0.01331842
72 -0.12033111 0.63407004 0.22151385 0.16511615 0.4161346 -0.3323683 -0.004306329 -0.13412634 0.34983107 -0.2838711 -0.5742094 0.27893326 -0.62979716 -0.53600574 0.7173937 0.31449512 0.13623975 0.39988223 -0.32771033 0.04852791 -0.05475118 0.43736613 -0.24118446 0.002713534 0.51333207 0.03142179 0.15730567 -0.5923371 0.62622035 0.5454 -0.091618896 0.119413316 0.59798247 -0.22213562 0.3082932 0.4165232 -0.2096963 -0.9965805 -0.13074453 0.38164464 0.70011336 -0.04250247 0.49738047 -0.6678107 -0.33156234 -0.24472603 0.042250667 0.04739385 -0.36357385 0.23584 0.36710995 -0.073971 -0.19989744 -0.36722875 0.13222975 -0.10328301 -0.027494825 0.07955352 0.2616475 0.34186962 -0.019939518 0.31232104 0.7247598 0.113281384
170 -0.95375663 -0.18386202 -0.18034992 0.8544395 -0.3028375 -0.22207902 -0.38906136 -0.6188849 0.3290082 0.8593926 -0.19256456 -0.062261652 -0.5493495 -0.2151476 -0.105655245 -0.24390922 -0.36932233 0.33582482 -0.2705313 0.6105565 -0.13145983 0.5350647 -0.34033677 0.31490475 -0.026750468 -0.532016 0.206979 -0.061666854 0.042528 0.106348604 0.07781777 0.6019106 0.46341664 -0.85418206 0.57142955 0.10341794 -0.80609334 -0.8828741 0.45962006 0.0730423 0.23045233 -1.1696168 0.099366456 -0.6715167 0.016102042 0.3230955 0.28172398 -0.006021939 -0.6982404 1.0992073 -0.06742132 0.15099692 0.17013016 -0.45067725 0.219999 0.10436086 -0.90358484 -0.089050956 1.736263 -0.24404123 -0.37805402 -0.25729913 0.9473667 -0.4219176
171 -0.847031 -0.22170404 -0.043095347 0.74041957 -0.13764757 -0.31027076 -0.3569009 -0.6682435 0.14339651 0.87883604 -0.1966151 -0.1345965 -0.5699686 -0.21464537 -0.12289142 -0.15521467 -0.17830783 0.33248362 -0.25362697 0.47485703 -0.22551753 0.5162216 -0.42084473 0.24348707 -0.0105647985 -0.5098516 0.058235664 -0.0027312995 0.10172433 0.25975522 0.12795706 0.49602616 0.22568327 -0.9729191 0.5053316 0.27345657 -0.8046611 -0.83264846 0.39365605 0.31255323 0.24528877 -1.0704495 -0.086290605 -0.6791331 0.041033868 0.708384 0.3247232 0.13438615 -0.97586083 1.1078783 -0.14339861 0.07552949 0.20521748 -0.59104246 0.07279533 0.09297493 -0.89293015 -0.27815482 1.5614395 -0.16895212 -0.26325232 -0.06025357 0.86157286 -0.46180418
172 -0.86549354 -0.0338488 0.0477527 0.7902518 -0.082336314 -0.0073568705 -0.24149722 -0.74016476 0.14027853 0.83530045 -0.085732326 -0.08713212 -0.67478096 -0.23260972 -0.050249524 -0.20800877 -0.475447 0.39935145 0.0008571096 0.6371923 -0.11260205 0.57002366 -0.38136497 0.076436885 0.020880476 -0.5644864 0.37199306 -0.1873044 0.23222515 0.099630326 0.17272937 0.65614206 0.31784946 -0.83182335 0.67463964 0.19876167 -0.62528265 -0.78456545 0.53463805 0.17580245 0.37365866 -0.9703882 0.053857584 -0.53254455 -0.04764616 0.6484211 0.33694166 -0.026861088 -0.7910784 1.22288 0.020128328 -0.043829568 0.23069537 -0.51595926 0.23983149 0.26708856 -0.73631394 -0.3485218 1.6037698 -0.17783827 -0.30287552 -0.055333536 0.5626603 -0.587089
264 0.034421906 0.48885813 0.14695473 0.5049292 0.17533347 0.3088798 -0.76332045 -0.66611445 -0.0135471895 0.7095749 0.33546942 0.19796926 -0.3795551 -0.0729426 0.7131977 0.011034841 0.042347796 0.5887305 -0.3489971 0.029576937 0.34612283 1.0206778 -0.4847997 0.32898232 0.06458165 -0.31585482 0.68920356 -0.4841994 0.28918415 0.5806605 -0.24818517 -0.00013181346 0.03407479 -0.58000326 -0.3453657 0.39868742 0.2094347 -0.5345144 0.43862736 1.0291282 1.0171071 -0.8287744 -0.17445916 -0.19006062 -0.12477758 0.029315598 -0.5791566 0.9539227 0.00079261395 0.7784184 0.25262314 -0.02715559 0.76994914 -0.49827194 0.792529 -0.318079 -0.8815476 0.24126321 0.38760486 -0.93485194 -0.343872 -0.64903957 1.1318314 -0.8428461
263 0.11244909 0.30217165 -0.054927547 0.4315722 0.42328408 0.18005843 -0.9299894 -0.669382 0.07333516 0.74696654 0.20726217 0.116643034 -0.25281563 0.07082202 0.7684955 0.16774286 -0.19644992 0.67336965 -0.38003787 0.13858382 0.5030631 0.71513844 -0.5224751 0.24075975 0.010200217 -0.41738698 0.76051337 -0.4064587 0.31035438 0.6821795 -0.2715527 0.0530926 0.024821267 -0.5665646 -0.31206003 0.49177343 0.16259006 -0.50539786 0.39842668 0.6687028 1.0799325 -0.8385709 -0.041251067 -0.08334512 -0.20971783 -0.18312502 -0.60786587 1.0291501 -0.03191395 0.6838759 0.23046976 -0.09090757 0.9213346 -0.36804742 0.7232887 -0.056173295 -0.8774963 0.052120045 0.46083835 -0.80556035 -0.32502627 -0.7702577 1.1838331 -0.7801237
262 -0.16673507 0.34942597 -0.081585765 0.671953 0.38026902 0.12721997 -0.687428 -0.7396495 -0.17570949 0.56979257 0.108637646 0.07573955 -0.39071062 0.044747066 0.5860591 0.20470932 -0.05000478 0.84402215 -0.35964674 0.07539521 0.37002322 0.8192482 -0.7508746 0.45301223 0.008649073 -0.15085168 0.45155331 -0.49291846 0.34382293 0.78087664 -0.28453335 -0.19568454 -0.16838793 -0.6857042 -0.4623957 0.41067624 0.2373796 -0.32758987 0.11591258 0.6977392 0.99925405 -0.71772724 -0.13840583 -0.2299964 -0.13713583 -0.06401142 -0.642175 0.95622045 -0.20149407 0.73371565 0.14708553 -0.20113799 0.9126868 -0.27976424 0.61909866 -0.20323345 -0.95572615 0.005994252 0.40602115 -0.8101295 -0.23357783 -0.80559564 1.1576128 -0.6132264
51 -1.1190003 0.20262928 -0.058978513 0.53156394 0.7198909 0.66515386 -0.34046733 -0.20671493 -0.3252778 0.4965674 0.96391076 0.37416285 -0.18509166 -0.49866349 0.15150777 -0.24948312 -0.2551636 0.375658 -0.4162534 0.24116215 0.12198464 0.73754615 0.058049377 0.5201443 0.7839606 0.5431741 0.33952492 -0.647485 0.36706647 1.0170625 0.54707456 -0.047104593 0.09580927 0.053522386 -0.25572768 0.43800038 -0.45547143 -0.4971731 0.26527497 0.69103336 0.13473143 -1.1815544 0.8830782 -0.2592813 -0.33422258 0.24695179 0.070255935 0.73173434 -0.68552077 0.19687225 0.06325754 0.59726477 -0.11484341 -0.088122986 -0.21995653 0.42893842 -0.3422226 0.30833754 1.2058859 0.38484448 -0.12133941 -0.43491012 1.1960369 -0.6219085
134 -0.44555438 -0.35482135 -0.3245038 0.36729917 0.18071602 -0.5682467 0.1657953 -0.69391066 0.17936485 0.24923709 -0.18092471 0.5455719 -0.14497635 -0.09341323 0.91186047 -0.57496846 -0.2609879 -0.07962919 0.2045927 -0.13837038 -0.07360033 0.4557183 -0.27331632 -0.013701342 0.10710888 -0.11973178 0.42400324 -0.73470134 0.10013022 0.010036903 0.31501836 0.27697662 -0.39046493 0.22392483 -0.23065996 1.2595974 -0.26399428 -0.4260487 0.24388303 1.0181361 1.2495018 -1.167335 0.8210089 -0.32088527 0.3219961 0.7715462 0.013106444 -0.245564 -0.91234195 1.2534914 -0.06438635 0.2712526 0.24682765 0.010811094 0.5891879 0.27568197 -0.33482653 0.83265686 0.6935732 0.1006807 0.08480755 -0.9711164 1.0518383 -0.23222567
261 -0.12383635 0.41551137 -0.19438173 0.7202754 0.36161634 0.29561388 -0.7101635 -0.87867624 -0.2508731 0.75081664 0.08191406 0.11370149 -0.30935615 0.2182162 0.6323334 0.05343681 -0.2579263 1.03074 -0.18448523 0.081343554 0.43968433 0.6684224 -0.73751783 0.48339093 0.18507153 0.009504252 0.4814396 -0.3566128 0.3366581 0.5755393 -0.3763198 0.14772864 -0.10156777 -0.43107173 -0.37256148 0.14358564 0.07176029 -0.41776755 0.43350285 0.34405875 0.95055944 -0.7811625 -0.11938392 -0.29575342 -0.09039568 -0.19047089 -0.8097099 1.0156947 -0.02148977 0.8070139 0.18111601 -0.18688509 0.89682764 -0.16906139 0.34477624 -0.21987996 -0.71551085 -0.01490654 0.32852566 -0.7600908 -0.46187195 -0.7547558 1.1765164 -0.61813974
173 -0.69524646 -0.22495177 0.082663044 0.8124958 0.16105391 -0.15080287 -0.3241476 -0.6054429 0.08513428 0.67433095 -0.025044877 -0.13124943 -0.5240062 -0.25496992 -0.16609026 -0.25546262 -0.39379886 0.1853528 -0.15644538 0.54107237 -0.033207282 0.40182155 -0.26621255 0.23693383 -0.07445399 -0.63534564 0.22442415 -0.11291 0.45044246 0.18877345 0.2979127 0.4809476 0.31312352 -0.9027471 0.66572773 0.1599263 -0.5936908 -0.8935941 0.15240781 0.23975554 0.45078424 -0.9296959 -0.040380087 -0.5667914 -0.15174434 0.8874566 0.36977455 0.083280385 -0.83987784 1.1821159 -0.06434492 -0.15298228 0.55814886 -0.46268868 0.10001079 0.15350999 -0.6945695 -0.13743003 1.6486485 -0.0717351 -0.5835263 -0.08613631 0.66101825 -0.58096504
271 -0.30216953 0.26058805 -0.65144885 0.52166927 0.011646527 -0.056969594 0.21482264 -0.18020576 0.24005994 0.26588893 0.31794298 0.65754104 -0.56793904 -0.59914297 0.4141469 -0.5383534 -0.33813798 0.69638485 -1.217066 0.37548456 0.57365763 0.079690635 -0.5547543 0.38025752 -0.06741129 -0.12720472 0.7075568 -0.5948016 -0.13745452 0.30552462 0.5251148 0.73643523 -0.23156045 0.17403033 0.1826955 0.5829805 -0.09415227 -0.63380927 0.26940328 0.61333776 0.92921066 -1.7682045 -0.10377166 -0.6601515 -0.48342016 0.9735547 -0.6672426 0.13140735 -0.16962641 0.025119772 -0.0794602 0.27032757 0.06998775 -0.82478154 0.09130571 0.22517991 -0.27369606 -0.120033234 0.51277053 -0.31366557 -0.18147276 0.0630493 0.39935923 -0.12321762
30 -0.37275073 0.33583143 -0.0138860615 0.34380418 0.17760448 -0.39752427 -0.18543555 -0.95811534 0.12918341 0.30731422 -0.012565525 0.32330415 -0.5378858 -0.13444276 0.41840866 0.15751444 -0.13090609 0.44599697 -0.091766946 0.3189369 -0.43997097 0.49897024 -0.8191624 0.5700126 -0.6623871 0.5277514 0.6180456 -0.20712782 0.46335936 0.7809302 1.3910218 0.44338536 -0.07722094 0.17889647 0.1822824 0.879114 -0.06869735 -0.21979198 0.46969867 0.20044544 0.6150972 -1.1022385 -0.50294673 0.113805175 0.03220564 -0.10588719 0.18043324 -0.15912211 -0.4714654 -0.10881153 -0.14859521 0.17306285 0.23219344 -0.61275524 -0.18942921 -0.1397785 -0.02906234 0.11715868 1.0849437 -0.17000058 -0.4791896 -1.1053579 0.92274076 -1.2262781
132 -0.41306397 -0.16562182 -0.3520973 0.16712064 0.11231131 -0.3958841 0.23937608 -0.63160163 0.060830016 0.24638806 -0.2480703 0.69523203 -0.25166693 0.08527278 0.7896512 -0.5816173 -0.0839398 -0.16655932 0.12210101 -0.24305107 0.197477 0.51913446 -0.08264495 -0.0068257772 0.19634224 -0.17559019 0.4407235 -0.34328005 -0.055872444 -0.083380714 0.49528912 0.17944348 -0.35091752 0.36959732 -0.09051212 0.9630558 -0.21202905 -0.47609088 -0.14661998 0.9144649 1.1237872 -1.2050302 0.91042006 -0.22915271 0.34469974 0.8223357 -0.11534218 -0.43489334 -0.68720734 1.2380728 -0.39963058 0.25275302 0.21885714 -0.35620445 0.37644836 0.12826845 -0.09121755 0.6302643 0.8803436 0.42055053 -0.03417742 -0.8406656 1.4765704 -0.12669076
133 -0.41354376 -0.099652536 -0.35644925 0.41267934 0.15070729 -0.46997878 0.122872666 -0.7518961 0.09873955 0.13230176 -0.20986353 0.52310836 -0.10251408 -0.014132323 0.97188795 -0.3919612 -0.326666 -0.16820057 0.1970353 0.008857217 0.16098548 0.5867825 -0.2649229 -0.16416642 0.2390867 -0.18623804 0.41684514 -0.4961286 0.20380934 -0.14023218 0.5025465 0.36216855 -0.15786225 0.4939899 -0.17913797 1.150929 -0.38635176 -0.38232914 0.06652363 1.0586107 1.123384 -1.2802261 0.79908735 -0.029423721 0.35640684 0.65406615 -0.038838826 -0.2521792 -0.6638911 1.2029734 -0.43675542 0.30405238 0.17188384 -0.06936531 0.6079348 0.24199677 -0.37708682 0.7167908 0.8755493 0.21008974 0.08260913 -0.8671009 1.1350384 -0.062756054
270 -0.27749586 0.23060428 -0.65839815 0.45533746 0.29155102 -0.30605772 0.35098356 -0.10980962 0.12443811 0.24583632 0.53842586 0.66285956 -0.58768183 -0.68622756 0.45707217 -0.5820287 -0.15837231 0.6183077 -1.1772783 0.42340708 0.63859564 -0.114360556 -0.6250725 0.6978091 -0.14259735 -0.04079019 0.63721424 -0.66396755 -0.09008858 0.27182466 0.466697 0.51485735 -0.30060545 -0.03015516 -0.08455692 0.52462035 -0.2736168 -0.6819772 0.15109505 0.43475184 0.86623824 -1.6811991 -0.046842515 -0.53716487 -0.3464707 0.88135535 -0.27053276 0.035410084 -0.29317057 0.11332765 -0.14145003 0.018633835 0.09050387 -0.7883822 -0.004689721 0.076887056 -0.34189266 0.06282134 0.4552215 -0.49541232 -0.5356339 0.048252825 0.36754304 0.08796734
29 -0.29863364 0.36331934 -0.08568201 0.23721139 0.16330323 -0.17436124 -0.2613518 -1.0711365 -0.009688749 0.07030397 0.07399103 0.5156751 -0.35068575 -0.03491199 0.3852219 0.028652573 0.13321528 0.5016833 -0.22732691 0.2124441 -0.34469044 0.6285897 -0.8302131 0.70188755 -0.27408472 0.30634254 0.6123101 -0.1530324 0.17004243 0.65697086 1.2596954 0.42368108 0.26564533 0.092298895 0.10614687 0.80341387 -0.04745559 -0.4530425 0.4605124 0.12974273 0.60046643 -1.2327633 -0.44905376 0.19780602 0.19827056 -0.066297695 0.30945155 -0.15382302 -0.48837054 -0.15725523 -0.1021438 0.11093142 0.3853085 -0.73929816 -0.14683343 -0.38446403 0.19254452 0.15652083 1.0899194 0.087832235 -0.59728223 -1.0938544 0.67165655 -1.387533
52 -1.0918621 0.3358531 -0.07013941 0.328193 0.92054766 0.6420551 -0.23695163 -0.075432055 -0.2901749 0.671951 0.9555429 0.27800876 -0.31884253 -0.33559301 0.12992333 -0.3096224 -0.16776511 0.57937795 -0.24163212 0.293844 0.040325038 0.5787773 0.08458 0.5878374 0.72745407 0.30807433 0.46391207 -0.5779942 0.59582376 1.0718297 0.4543874 0.18059182 -0.0016401389 0.059044648 -0.3126842 0.58488613 -0.42200172 -0.71132934 0.31126237 0.55147004 0.010362879 -1.2119734 0.80018705 -0.24527831 -0.4291606 0.2984509 -0.002422285 0.62701315 -0.53735113 0.3455144 -0.11548856 0.6374243 -0.09619488 0.04363804 0.029083116 0.33926255 -0.16290219 0.25585657 0.99432325 0.4821552 -0.14043115 -0.52191496 1.1659529 -0.70031977
32 -0.16176799 0.2950633 0.053897996 0.24221088 -0.17370495 -0.3771115 -0.10909307 -1.0049038 0.06418079 0.21062368 0.11744333 0.600229 -0.44011933 -0.5283565 0.17013903 -0.06303953 -0.3580744 0.42517504 -0.12123385 0.3586818 -0.4212644 0.3395522 -0.7335077 0.5954133 -0.44489 0.6380432 0.3891768 -0.28601626 0.54738027 0.7070268 1.1835711 0.514576 -0.11815469 0.2611582 0.28299838 0.8270112 -0.120776124 -0.29588324 0.4916322 0.078989126 0.7213468 -1.0571412 -0.36456606 -0.06681941 -0.03561788 0.07417374 0.36214352 0.0007819292 -0.64963245 -0.038082767 -0.012712627 0.10944583 0.20915815 -0.3926704 -0.05477865 -0.35626215 -0.20345365 -0.00036915208 1.0174998 -0.493276 -0.48199788 -1.4958982 1.1812043 -1.3491298
84 0.029932534 0.6389577 -0.037353184 0.19236146 0.4359922 -0.08639827 0.22354856 -0.6084726 0.078624375 0.15150611 0.539622 0.563169 -0.36120448 -0.0047686617 0.48851633 0.23714477 -0.88996124 -0.01958882 -0.42556617 -0.07546401 -0.30569163 -0.0075215674 0.039562047 0.7714082 -0.15251881 -0.015694065 0.22615594 -0.4311676 0.50823945 0.018974323 0.9707849 0.32398468 0.036499966 -0.718984 -0.41600788 0.4217872 0.2681156 -1.0933888 0.54860175 0.8016449 0.22856344 -1.143291 0.12731937 -0.66855425 0.6716547 0.14956795 -0.9640794 0.1511866 -0.63470787 0.87786734 0.15049325 0.030657556 0.63886935 -0.6794806 -0.41441754 0.13944048 -0.8480499 -0.406914 1.0835669 0.1743483 0.2464157 -1.142733 0.638093 0.051757526
83 -0.015858496 0.73743856 -0.06247985 0.22302838 0.35859162 0.1752978 0.1605866 -0.99124277 0.20455225 0.25874284 0.78262424 0.7108026 -0.37005138 -0.10717219 0.56455743 0.15261929 -0.8164503 -0.048524708 -0.5499732 0.02699265 -0.22141114 -0.08434618 0.076662645 0.7507278 -0.27241248 -0.052946072 0.29978904 -0.6060826 0.48290068 0.03822302 0.777215 0.14981823 -0.007794915 -0.66987514 -0.35836962 0.26307812 0.10137317 -0.9533261 0.64439833 0.72673094 0.21138163 -1.0376981 0.40910235 -0.8154963 0.7528207 0.14405368 -0.8767294 0.090559475 -0.5015843 0.9327449 0.117102675 0.12920085 0.6941254 -0.8219842 -0.34644473 0.11959172 -0.7466277 -0.28097212 1.0865047 0.32161638 0.14964676 -1.1956377 0.44351336 -0.10461839
260 -0.13670029 0.28887752 -0.032534737 0.68710005 0.24349089 0.07319429 -0.6164114 -0.92104614 -0.38399348 0.5975206 -0.012907888 -0.1109672 -0.17379248 0.05854328 0.508601 0.17527393 -0.27953652 0.993019 -0.293068 0.27476764 0.5641502 0.7204062 -0.7402658 0.5090737 0.16266173 0.06239193 0.32096407 -0.18806049 0.6881757 0.5704388 -0.32692322 -0.0026451102 -0.07546827 -0.3546502 -0.7520278 0.33644715 -0.06608909 -0.3588024 0.2748244 0.3276545 0.87045485 -0.8275003 -0.06758177 -0.064898394 -0.40936008 -0.11601493 -0.7242638 0.8265772 -0.20821771 0.79532593 0.14036305 -0.18529041 0.9198533 -0.2095603 0.1145876 -0.0877644 -0.8263797 -0.15726206 0.33436581 -0.83377284 -0.13342993 -0.72138834 1.146825 -0.538965
31 -0.24095424 0.30737668 0.04154307 0.2205445 0.032625936 -0.22121932 -0.438172 -1.1785743 0.14354463 0.17223196 0.19954453 0.48613828 -0.3276427 -0.36610946 0.11231787 0.004447155 -0.17258325 0.44300723 -0.08651831 0.327526 -0.48612833 0.31619674 -0.8987592 0.61329883 -0.31975493 0.38221663 0.40876657 -0.24232389 0.52194095 0.82425916 1.2064143 0.58642304 -0.2086209 0.13998857 0.31601617 0.9091278 -0.21498345 -0.26786295 0.40254998 0.20491368 0.7666635 -1.0679669 -0.38655767 0.05631491 0.11972553 0.18497436 0.18579833 -0.12364432 -0.40449405 -0.0060499827 -0.18225482 0.16618434 0.1351245 -0.5254361 -0.15522598 -0.44253683 -0.0013831975 0.08393466 1.0330459 -0.27085382 -0.56495196 -1.422601 0.9151323 -1.1818285
131 -0.6138614 0.12345973 -0.33357966 0.30073076 0.075085014 -0.50562936 0.18128495 -0.5374606 -0.12854436 0.043639276 -0.3188433 0.5484076 -0.29179493 0.3855504 0.6041678 -0.52877456 -0.26166782 -0.09600684 0.17213528 -0.041187156 0.22595668 0.44177812 -0.28216615 0.013131014 0.31967872 -0.07436895 0.5736658 -0.54063714 -0.27046898 -0.26683787 0.5694443 0.1036918 0.011435963 0.62108487 -0.2553196 1.0242976 -0.20914142 -0.37883243 -0.1129532 1.052564 0.9610368 -1.1480312 0.90041894 -0.23461527 0.46536988 0.8271745 -0.1692484 -0.5201691 -0.77363604 1.0162997 -0.4564669 0.1176711 0.027873324 -0.2862931 0.28362003 0.21648093 -0.27460027 0.596107 1.1432403 0.51526743 -0.08215874 -0.7198256 1.2311362 -0.09524026
272 -0.47741628 0.47184148 -0.7317267 0.76853704 0.101557896 -0.10627191 0.02924845 -0.19221427 0.19252598 0.10017977 0.26573968 0.5426522 -0.82964253 -0.5628093 0.5326269 -0.5985411 -0.4006274 0.3870674 -1.164652 0.27667663 0.5069713 0.18333846 -0.45696583 0.56481355 -0.15796916 -0.15518767 0.5833592 -0.7344603 -0.15640491 0.5145966 0.46648642 0.5455921 -0.120149605 0.094391085 -0.08375626 0.6929876 -0.27726427 -0.6209503 0.38012028 0.5793955 0.926693 -1.7587587 -0.17300613 -0.62475467 -0.30925143 1.0663723 -0.6721385 0.037710078 -0.19861695 -0.021163115 -0.25070423 0.05789754 0.11417448 -0.77308106 -0.06211543 0.42091966 -0.21513407 -0.13932073 0.4702616 -0.56971186 -0.46238124 0.08923776 0.446915 0.04246456
274 -0.5223148 0.39744368 -0.68058395 0.9265721 -0.14926529 0.05647813 -0.08992712 -0.26176614 0.22704698 -0.02146495 0.1244063 0.5917583 -0.86838883 -0.69401705 0.2574819 -0.2691227 -0.46059433 0.57048434 -0.93018603 0.3031327 0.4355737 0.18537487 -0.36364537 0.7831141 -0.30130285 -0.25087002 0.7357109 -0.590792 -0.17163108 0.79715425 0.4587248 0.75397635 -0.06558135 0.10320792 -0.039453518 0.68389213 -0.28875092 -0.5787108 0.39714843 0.4260324 1.1073138 -1.8131602 0.1543134 -0.62884 -0.47541773 1.1162909 -0.86589646 0.33944774 -0.18455797 0.08039028 -0.3736261 0.1745748 0.52809244 -0.7263044 -0.20298898 0.16894281 -0.049310405 0.047989856 0.46430704 -0.40815207 -0.19429883 -0.022382587 0.39105603 0.22957544
85 -0.16012725 0.713724 -0.046983518 0.26713783 0.20616947 0.14114833 0.23723522 -0.67322946 0.36650217 0.1168086 0.6782765 0.6023739 -0.15466607 -0.0069515463 0.39033833 0.1906122 -0.76173294 -0.16715296 -0.3108141 -0.062163148 -0.055623055 0.11101113 -0.05518221 0.48508275 -0.48562482 0.19739294 0.18110596 -0.4823826 0.5174209 -0.056987718 0.84582984 0.31282988 0.08255611 -0.7757632 -0.33171746 0.40329766 0.040367052 -0.9538043 0.36158976 0.7691668 0.47385877 -1.0688647 0.37103155 -0.6334965 0.77537745 0.09349406 -1.1403774 0.23372109 -0.6571259 0.87151855 0.16437571 -0.061088704 0.50978243 -0.80920994 -0.60605174 0.06745578 -0.75747156 -0.32513484 1.1995833 0.045341477 0.28173512 -1.0238413 0.57918584 -0.102794394
87 -0.097445786 0.8562735 0.14310329 0.22874577 0.3174395 0.09978681 0.42453498 -0.27562022 0.2908582 -0.048025433 0.5957523 0.34299725 -0.11839441 0.19292217 0.10496137 -0.07291281 -0.58328426 -0.21425202 -0.026233474 -0.29541558 0.02367435 0.14822796 -0.21005179 0.40438062 -0.35481188 0.39083108 0.3122495 -0.5106145 0.35062617 -0.006360168 0.6548132 0.7481182 0.19184797 -0.8062889 -0.33332407 0.39126086 0.15089543 -1.0699085 0.43564203 0.6449225 0.57116574 -1.1899201 0.26496264 -0.53201306 0.48746863 0.1039461 -1.125802 0.23654526 -0.5793284 1.0314661 0.46331918 0.10281822 0.41000518 -0.74374586 -0.431838 0.26834062 -0.53005356 -0.5426559 1.1693819 -0.033712305 0.021325707 -1.1298226 0.5083009 -0.07531044
273 -0.4234679 0.52530247 -0.7475234 0.73872966 -0.05434232 -0.21676339 -0.07015867 -0.28940108 0.3268999 0.0876457 0.1561355 0.5076469 -0.72663593 -0.5796513 0.1632045 -0.61653113 -0.52730393 0.45823735 -1.1961287 0.3250795 0.46594474 0.11108186 -0.33532068 0.7287423 -0.24567722 -0.18574458 0.84114844 -0.5015754 -0.12819713 0.7131373 0.3570932 0.6696552 -0.13042869 0.22018144 -0.09122527 0.58925396 -0.28165692 -0.7643447 0.12653424 0.5128026 1.0019438 -1.7209121 0.096267834 -0.5455329 -0.6182042 1.1291317 -0.74411833 0.1383914 -0.30825105 -0.054753397 -0.076741934 0.20259565 0.426529 -0.8379812 -0.03957442 0.20322603 -0.27854767 0.06102787 0.4746098 -0.4549537 -0.18230955 -0.099756524 0.4324094 0.027833197
28 -0.15927559 0.35111925 0.13025053 0.06667403 0.3822813 -0.08329864 -0.45431525 -0.84986144 0.018296994 0.1870772 -0.032075644 0.36956298 -0.49876592 -0.14064944 0.63192576 0.13022825 0.23617622 0.36513618 -0.31805956 0.27166808 -0.21272571 0.68197393 -0.7024876 0.6965776 -0.39173725 0.18310007 0.75191534 0.03997523 0.24018818 0.7455675 1.3603238 0.22683829 0.2783194 0.15040874 0.26082855 0.562471 -0.11558136 -0.24589014 0.15649459 0.340595 0.5349545 -1.2710704 -0.7171488 0.12790339 0.02190679 0.042823497 0.15397076 -0.33079126 -0.46349534 -0.10090575 -0.37709177 0.022315249 0.17651358 -0.73170245 -0.34366357 -0.33806446 0.056998204 0.23002358 1.1593308 0.11275208 -0.25013384 -1.135117 0.7757504 -1.2509009
86 -0.097311735 0.6697958 -0.04549231 0.048093807 0.31512073 -0.15305853 0.35529512 -0.5356962 0.29172373 0.12184744 0.6493553 0.62165266 -0.15050438 0.13678001 0.27970046 0.083667725 -0.69131833 -0.14054243 -0.25569904 -0.1993683 -0.094963156 0.15552963 -0.038102366 0.3260046 -0.28922716 0.3155702 0.33754447 -0.47276965 0.5561944 0.11134588 0.6276297 0.6228182 0.18714643 -0.7042026 -0.4831908 0.39236876 -0.053726014 -1.3401514 0.35073715 0.75921553 0.48589805 -0.96089965 0.08182409 -0.66286755 0.66963214 0.05265602 -1.0904604 0.30262786 -0.6464445 0.891839 -0.0799803 0.13081196 0.556194 -0.6793858 -0.44061708 0.27686393 -0.5355236 -0.672078 1.1220591 0.02709795 0.00855003 -1.1802031 0.5019569 -0.032784067
88 -0.13893464 0.7694569 0.0162888 0.17767407 0.3859847 -0.09864465 0.44828242 -0.31899366 0.63646597 -0.07788005 0.4985988 0.49661762 -0.11614961 0.28932506 -0.03009946 -0.14803249 -0.4386784 -0.3688221 -0.2019144 -0.112647414 -0.16933328 0.29324743 -0.23510328 0.44849125 -0.43226454 0.43859017 0.26714826 -0.3695758 0.621383 0.15026288 0.30407152 0.7913198 0.022356316 -0.7349289 -0.5250091 0.3897224 -0.06575523 -0.8673703 0.39577365 0.7044797 0.5236048 -1.1716213 0.17833543 -0.4027994 0.57006234 0.059498936 -1.1519517 0.20502973 -0.65352726 1.1654925 0.1926336 0.06955135 0.5153991 -0.38395977 -0.5778344 0.08662016 -0.7145777 -0.63170934 1.0931253 -0.18565989 -0.17626324 -1.0218406 0.3591172 -0.083450705
151 -0.2758683 -0.2969682 0.096651666 0.4781168 0.8917732 0.2698447 -0.53320926 -0.46736863 -0.24683687 -0.38216072 -0.04802977 0.1850614 -0.8250335 0.26192662 0.18645369 -0.4052486 0.44832483 0.40203068 -0.48810965 0.703373 0.5869771 0.4687101 -0.18935297 1.3029792 -0.20320116 0.41968516 0.98092884 -0.48463857 -0.090895854 -0.0044085276 -0.51037407 0.9905919 0.7197248 -0.16297252 0.22420236 0.54789 0.13456835 -0.9663168 0.14160623 1.4464496 0.20141134 -0.6153714 0.67238724 -0.18550245 -0.35566518 0.3984718 0.55602705 0.20066151 0.017507862 0.6975007 -0.364405 0.5900817 -0.016126867 -1.2994097 -0.5925835 0.012254049 -0.4896079 -0.23024708 0.5855969 -0.011630235 0.0088135535 -0.14782181 0.6623883 -0.8720815
53 -1.2099057 0.43383884 -0.3108504 0.46345165 0.98088413 0.6862561 -0.06816806 -0.082968056 -0.09842943 0.5937793 0.87114114 0.17162003 -0.33969536 -0.33112285 0.1497586 -0.20649265 -0.2073167 0.40997285 -0.27310592 0.095071934 0.06427341 0.56973666 -0.12892433 0.5131571 0.48306456 0.2889269 0.38191092 -0.6654608 0.58451885 0.99549276 0.2864118 0.085269295 0.07494665 0.16033585 -0.15174241 0.55554 -0.5096629 -0.16003624 0.36387587 0.5461946 0.02555527 -1.2977465 0.9665149 -0.2490923 -0.21310076 0.18163718 -0.037373718 0.52393705 -0.64643604 0.26036036 0.087975666 0.750703 0.088847876 0.03409966 -0.055437904 0.22182006 -0.47956848 0.2951325 1.0149257 0.38798258 -0.11717183 -0.30823192 1.0946962 -0.9800787
269 -0.07362701 0.24173385 -0.48188514 0.30817625 0.20344396 -0.15394157 0.13412164 -0.12917612 0.28617805 0.2697807 0.5039255 0.47057426 -0.76788574 -0.46248934 0.46378544 -0.5101042 -0.25435856 0.8960586 -1.1609304 0.52452296 0.5884006 -0.1720608 -0.62155473 0.2962111 -0.15579802 0.09773544 0.6119465 -0.6590224 -0.09476866 0.049840305 0.60969293 0.4168652 -0.2334032 0.12527117 -0.12117487 0.46016517 -0.2477787 -0.4498612 0.08755816 0.5235753 0.8803993 -1.7407378 0.018101936 -0.5330368 -0.14852029 0.80896896 -0.16624226 0.17693512 -0.32098952 -0.032490503 -0.21111998 0.29028428 -0.03982259 -0.7394761 0.16022323 0.14705949 -0.39423245 -0.16112545 0.722006 -0.4877875 -0.43653634 0.11543828 0.30047056 0.2064108
130 -0.37987894 0.066743895 -0.23204294 0.11764937 0.2766853 -0.4543022 0.06590962 -0.5618682 0.0042386176 0.109448425 -0.2719223 0.37345544 -0.21290466 0.47395036 0.9389056 -0.436628 -0.041884787 -0.054639652 0.08266164 -0.028089197 0.23747696 0.4534324 -0.16524497 0.10969001 0.06866114 -0.19039027 0.4550111 -0.44688573 -0.3304495 -0.15629731 0.5574267 0.19001906 -0.059321724 0.7366364 -0.101971306 0.7940271 -0.16875897 -0.40329334 -0.29367724 0.9345204 0.93142885 -1.1753706 0.90513545 -0.14637437 0.079266444 0.84588265 -0.35522038 -0.39307415 -0.89761025 1.1803762 -0.83002406 0.18735804 0.21757855 -0.39111108 0.004759168 0.29339236 -0.31317198 0.6303914 0.9523132 0.8012582 0.21945441 -0.5414241 1.1603862 -0.23110345
259 -0.16965666 0.42361552 0.050176732 0.8048667 0.23902254 0.042787798 -0.5028684 -0.70715016 -0.5183667 0.6815716 -0.13194966 0.07034206 -0.48658535 0.28949717 0.30975708 -0.050374918 -0.40130547 1.1053863 -0.30128437 0.3323644 0.56050605 0.61041296 -0.79727584 0.06985362 0.23406585 0.2404436 0.25827813 -0.19044405 0.7068354 0.43710986 -0.37834504 -0.05279367 -0.27356592 -0.35781935 -0.35927334 0.25180304 -0.044854693 -0.25598308 0.20750053 0.63867456 0.72323924 -0.7597629 0.013747637 -0.1401019 -0.20620959 -0.20201251 -0.81609434 0.8720447 0.06048431 0.83854944 0.18615071 -0.17261946 1.0191578 -0.1746478 -0.12156169 0.016854022 -0.49253568 -0.060023434 0.53306454 -0.73340404 -0.1279423 -0.81050247 1.1398048 -0.45516282
174 -0.518698 0.1046568 -0.083051614 0.85099655 0.19892599 -0.05824263 -0.13531072 -0.7596496 -0.16420163 0.858076 0.03569222 0.07417376 -0.7092417 -0.14345297 -0.20382665 -0.39855906 -0.35469913 0.29803604 -0.084493965 0.5085161 -0.24612468 0.59577316 -0.16372749 0.0041071596 -0.06356202 -0.43395653 0.45522755 -0.17550372 0.48558608 0.22695664 0.37749526 0.51761806 0.5524845 -0.94441336 0.5539027 0.23871388 -0.680775 -0.6802788 0.1813319 0.28116965 0.693939 -0.8056763 -0.17027938 -0.6192598 -0.21869296 0.80254585 0.4993385 0.003594435 -0.8294787 1.1394031 -0.16098501 -0.22265132 0.422932 -0.5473507 0.14705507 0.22374143 -0.7686598 -0.27138463 1.4967674 0.027377516 -0.21121433 0.01656605 0.5806971 -0.427192
1 -0.59408134 0.058819976 -0.17855434 0.30321783 -0.2645496 -0.04822204 -0.47548822 -0.56622493 0.4283267 0.0798858 -0.14956021 1.1126885 -0.56031567 0.25679353 1.1509068 -0.46277297 0.3811713 0.60355824 0.2367729 0.22716668 0.14288567 0.1824331 -1.3188246 -0.076941274 -0.23079331 -0.11242438 -0.077205375 -0.13196915 0.549286 0.8894352 0.037318204 0.41422725 1.0095308 0.00201976 -0.39346516 0.0841312 -0.0140908 -1.0565106 0.7509651 0.90185386 -0.20571978 -1.3611869 0.4090082 -0.518273 -0.2871868 0.19837567 -0.4879495 -0.05013583 -0.28736806 0.069717325 0.13789271 0.6718233 0.12476312 -0.6950837 -0.55225486 0.3150878 -0.5901508 0.060244456 0.36614358 0.32787582 -0.18617484 -0.71691865 1.4008913 -0.018498333
54 -1.0767409 0.37372005 -0.2870153 0.36379424 1.0146428 0.54156387 -0.25985575 -0.07861031 -0.1773878 0.6555336 0.8261831 0.052037455 -0.42338145 -0.18370128 -0.018748539 0.0394625 -0.024200758 0.49092737 -0.280486 0.17655018 -0.24350911 0.5862943 -0.039744318 0.5599644 0.5184176 0.3371701 0.42270744 -0.8064773 0.51713735 0.94407177 0.30141872 -0.03975972 0.10647667 -0.05603455 -0.27829146 0.36629584 -0.716309 -0.4624372 0.29182687 0.5072621 0.10167849 -1.4873714 0.9391751 -0.005108618 -0.15893663 0.18719147 -0.22984129 0.2781597 -0.7673199 0.35726672 0.07678934 0.9291553 0.13121964 -0.06775685 0.16458571 0.4303828 -0.091222994 0.30534422 0.78246474 0.2376582 -0.19729501 -0.4309997 0.9941159 -0.9160319
89 0.078751445 0.67366993 0.18250103 0.0024205104 0.28370774 -0.0047375634 0.40180343 -0.2577976 0.55776525 -0.08909107 0.7917509 0.28879654 0.1680136 0.2018292 0.1539776 0.09101524 -0.42196938 -0.19056292 -0.20953299 -0.06441997 0.091566704 0.20300563 -0.37985522 0.32025522 -0.50700283 0.5202761 0.40354732 -0.27157706 0.39881232 -0.012083225 0.19086431 0.86048305 0.25760415 -0.7710201 -0.46157295 0.5606775 -0.08622892 -0.927944 0.57441336 0.448027 0.42725888 -1.4351397 0.10472234 -0.48637307 0.29664332 0.15941985 -1.0059389 0.16912013 -0.57478255 1.232181 0.33289507 0.065841466 0.55427307 -0.11502514 -0.40714997 0.074903645 -0.56082076 -0.5564257 1.0962158 -0.013253702 -0.07481745 -0.9774116 0.3761343 -0.14025056
175 -0.5067663 0.06861839 -0.027885774 0.6960432 0.27211902 0.1964195 -0.19948316 -0.5354306 -0.2508684 0.65838695 -0.26463562 0.0254202 -0.46470097 -0.42839932 -0.26038086 -0.32038325 -0.301924 0.22738773 0.076832466 0.5055325 -0.06667234 0.5715315 -0.39903578 0.22253923 -0.10782093 -0.45714802 0.5239722 -0.232515 0.60056597 -0.06800679 0.44796082 0.49990442 0.44772387 -0.7024617 0.5545963 0.25312743 -0.5016896 -0.64218384 0.25189468 0.2513866 0.52197105 -0.76598275 -0.06972936 -0.5193808 -0.29274032 0.8532879 0.27178562 0.11721133 -1.0975859 1.1084609 -0.30766818 -0.30338544 0.6888436 -0.6255811 0.18339998 0.43530077 -0.8291024 -0.29504496 1.513011 0.10771012 -0.5380922 0.07553886 0.5013597 -0.56261206
27 -0.2965254 0.4009911 0.12815557 0.10033244 0.36027262 0.10070588 -0.40511578 -0.9715916 -0.19421281 0.022534698 0.047974985 0.5514791 -0.40326384 0.25660774 0.6568547 0.0428173 0.25623524 0.5182789 -0.25172365 0.28803802 0.01990657 0.5836812 -0.80204004 0.5363678 -0.23092258 0.50250226 1.014816 -0.08913313 -0.05473727 0.5484852 1.303658 0.2568651 0.38043922 0.29129472 0.5896697 0.5626711 -0.27881986 -0.2563591 0.32815516 0.299996 0.40456566 -1.1402752 -0.70533895 -0.040831562 -0.059417017 0.057390228 -0.005167564 -0.44187313 -0.39905334 -0.25488666 -0.3511858 -0.08581599 0.2688116 -0.5702004 -0.0026803513 -0.51639235 -0.0632939 0.18397246 1.180384 0.18527661 -0.29761395 -0.8365196 0.7920325 -1.3015115
150 -0.28590426 -0.22403961 0.10383306 0.31882825 0.79240704 0.54701555 -0.43274197 -0.38634098 -0.20408784 -0.13513918 0.09631143 0.30011174 -0.69915134 0.2406517 0.38412476 -0.14723484 0.22017422 0.4655889 -0.38646993 0.47785506 0.4198009 0.45479727 -0.08562963 1.3231632 -0.077169955 0.5226647 0.8489811 -0.48855188 -0.11997176 -0.19144948 -0.5019097 1.1101581 0.8414456 0.031263 0.12682182 0.44884124 0.20162725 -0.8199412 0.2652214 1.2726107 0.055221517 -0.6026885 0.5003976 -0.2919104 -0.51422125 0.39444855 0.48760852 -0.10083681 -0.04321876 0.63107044 -0.6691825 0.4055541 -0.09638898 -1.2840178 -0.57936686 -0.07790359 -0.6768263 -0.2876471 0.7355058 -0.059561778 0.020207508 -0.08205052 0.6844392 -0.6708965
58 -0.5368907 0.5470509 -0.5613682 0.13710108 0.24569345 0.3231936 0.16997895 0.30364516 -0.1887551 0.5926981 0.949249 -0.1880784 -0.5172935 -0.3580237 -0.14338624 0.35133788 0.1355819 0.16416517 -0.13311954 0.2420942 -0.2384558 0.07724206 -0.532335 0.5990656 0.42090914 0.53979844 0.1613249 -0.3015099 0.15124723 0.9649029 -0.0893179 -0.14094618 -0.0748773 0.078351125 0.08996879 0.54736185 -0.5074307 -0.5323411 -0.032681666 0.5590555 0.5781788 -1.3929123 0.66851664 0.0011803119 -0.042308614 0.36080816 -0.26541048 0.6650637 -0.56246454 0.72695655 0.02426532 0.90770197 -0.30386505 0.08687342 0.22689366 0.37249032 -0.37472856 0.21076716 0.88789684 -0.032411613 -0.46679533 -0.4190223 1.0245073 -1.0762324
59 -0.33655658 0.25194165 -0.5366143 0.19769074 0.43603775 0.5245935 0.12724105 0.31310624 -0.13289115 0.5929337 1.0001994 0.035272833 -0.50106263 -0.31348616 -0.03232116 0.35150146 0.14725886 -0.10930988 -0.21851584 0.29246908 -0.45397976 -0.0044546565 -0.6980961 0.3850692 0.40472877 0.6901119 0.05847012 -0.15301189 0.3047842 1.0327715 -0.11818201 0.018181603 0.046821024 0.30420527 -0.06534564 0.48993564 -0.4684624 -0.52078086 -0.15286599 0.4383501 0.6154177 -1.3021394 0.52695644 -0.20167767 -0.2546028 0.32701948 -0.51097125 0.41156518 -0.5036695 0.8833025 0.08113302 0.45249748 -0.30190212 0.22362694 0.3388918 0.2604357 -0.24563669 -0.048276123 0.86453086 -0.123822175 -0.16343224 -0.08357105 1.0496562 -1.2059436
129 -0.4340792 0.03524574 -0.3027732 0.23357797 0.43521488 -0.45668742 0.09409546 -0.6675579 -0.037634246 -0.03963862 -0.39650172 0.5745996 -0.3276923 0.5788166 0.9419213 -0.19348294 -0.22262497 -0.06939505 -0.17583899 0.1056285 0.34227437 0.3706954 -0.19930704 0.29538637 0.108473435 -0.22326912 0.50388616 -0.49144724 -0.42024723 -0.20752539 0.31022462 -0.14218332 0.21261348 0.7874524 -0.28743595 0.47689772 -0.0980908 -0.28778675 -0.36767983 0.79251593 0.80281466 -1.1202172 0.77264625 -0.40256888 0.19980903 0.8967217 -0.06707349 -0.463078 -0.7718064 1.2922819 -0.7621291 0.09599839 0.2679031 -0.23487711 0.09621403 0.31253043 -0.15581499 0.60696054 1.0465604 0.6849259 -0.15145376 -0.6331707 1.07278 -0.15558405
268 -0.22388886 -0.056980453 -0.51865286 0.24204642 0.4948252 0.06266896 0.34456164 -0.06888339 0.2556417 -0.12772456 0.63337135 0.50023615 -0.5157066 -0.4924457 0.6034605 -0.65106046 -0.29628664 0.9097801 -1.0765587 0.5241779 0.4759465 -0.2498112 -0.64163005 0.41137788 -0.2798587 -0.12210671 0.3166156 -0.5336772 0.027966257 -0.08496331 0.686285 0.54950744 -0.23103155 0.046447176 -0.07614636 0.49956083 -0.16925985 -0.5304662 -0.0108208945 0.36092538 1.0371443 -1.5317867 0.111726195 -0.4327683 -0.33055654 0.53986615 -0.30613458 0.23057574 -0.4357672 -0.023287846 -0.28505567 -0.033216324 -0.1313297 -0.6629469 0.24358141 -0.14272505 -0.46412417 -0.13342822 0.63341343 -0.45348588 -0.4760582 0.22300784 0.41209874 -0.09478729
2 -0.694575 0.04136033 -0.120714575 0.29766276 -0.3061448 -0.12671873 -0.5296185 -0.4420556 0.3217632 -0.15725966 -0.11777364 1.1195952 -0.67335016 0.09823212 1.2198447 -0.5152767 0.32580426 0.52555317 0.22028236 -0.041022424 0.034946322 0.2400332 -1.2930529 -0.1480799 -0.14423588 0.07282829 -0.024358844 -0.19960734 0.5597609 0.7337506 0.06884643 0.11738177 0.9351385 -0.054213945 -0.2831804 0.23468874 0.17131218 -0.8090664 0.6478157 0.63550085 -0.0742695 -1.1954331 0.43212408 -0.7585492 -0.2584374 0.2251749 -0.28086165 -0.039380502 -0.30746445 0.1790559 0.2424726 0.5527726 0.06408586 -0.6729797 -0.63446295 0.34424818 -0.71353674 -0.16622448 0.3237072 -0.008347323 -0.20316546 -0.52887964 1.4526906 -0.15624852
57 -0.7781333 0.26974043 -0.6033561 0.23008892 0.593164 0.41837054 -1.4274199e-05 0.34176272 -0.0644851 0.5093368 0.69745076 -0.10779882 -0.37654126 -0.28404325 0.016634487 0.3307821 -0.02082539 0.13355438 -0.2879123 0.2645806 -0.18252592 0.1521349 -0.15646681 0.60440147 0.41178852 0.34630615 0.04057131 -0.43637216 0.37782454 1.0708852 0.1518398 0.077102765 0.10308154 -0.13548507 -0.14412148 0.5757556 -0.630451 -0.47166583 0.22144766 0.5257317 0.62887514 -1.2628716 0.6376594 0.048278086 -0.10475821 0.20893997 -0.47127375 0.42268643 -0.57844895 0.6786982 0.09648873 1.1000332 -0.12919202 0.054963093 0.18106173 0.44719988 -0.085398935 0.40246934 0.86110526 -0.10381433 -0.32147962 -0.16072245 1.1200813 -1.3773335
55 -0.9350347 0.5197221 -0.2619948 0.46726698 0.87239677 0.48947167 0.07969257 0.23554303 -0.08086963 0.7207483 0.8279397 -0.12021814 -0.48994628 -0.3390823 0.11567941 0.04283605 -0.2545657 0.28453252 -0.33157164 0.0279841 -0.17456514 0.26610005 -0.08281407 0.5231714 0.2518445 0.22456403 0.28966746 -0.55891055 0.5919895 0.9080072 0.20092636 0.040506843 0.031663317 -0.2824674 -0.065974236 0.5455794 -0.7867073 -0.35946187 0.26136318 0.7251689 0.23119487 -1.4203236 0.89843434 0.14668335 -0.15089986 0.19678828 -0.19556619 0.46740705 -0.50015306 0.37716308 -0.16839992 0.99796194 0.082957424 -0.133427 0.11865903 0.35868713 -0.1672168 0.49153346 0.8226887 0.35344306 -0.1393199 -0.4003139 1.1934699 -1.2403306
176 -0.29664084 0.28114945 -0.44741398 0.6206648 0.3965896 0.20979379 -0.14218578 -0.6364365 -0.25286126 0.78894377 -0.071727194 -0.002090986 -0.4283691 -0.09123348 -0.1151787 -0.40723464 -0.12025467 0.39717108 0.35710418 0.45524108 -0.32072145 0.42114785 -0.3764244 0.2580316 -0.2710254 -0.51244557 0.4807125 -0.40148675 0.5470664 0.12300159 0.49654332 0.59090525 0.47954002 -0.74491775 0.6851755 0.019437945 -0.4276858 -0.69676065 0.13237816 0.38055208 0.73308706 -0.53818214 -0.09168145 -0.59645295 -0.35692844 0.9420841 0.28801402 0.13018169 -0.86188203 1.1422555 -0.2619432 -0.14510511 0.65364593 -0.50020146 0.10410307 0.31331506 -0.5767413 -0.2939117 1.5517945 0.18071821 -0.64910287 0.113273375 0.62697583 -0.33260828
180 -0.20244625 0.16746953 -0.5718752 0.63184524 0.15021418 0.30509153 -0.38603216 -0.71926564 -0.20318206 0.486894 -0.11598999 0.26393595 -0.7241945 -0.38279822 0.4454443 -0.26476383 -0.15008672 0.503142 0.58386195 0.44761106 -0.18216525 -0.035006028 -0.27375084 0.35016254 -0.43520412 -0.10959288 0.41024873 0.11001109 0.88187313 -0.12633689 0.59919614 0.05465053 0.6010658 -0.41241145 0.5008047 0.22188374 -0.23226874 -0.5320614 -0.029552741 0.70734537 1.0215261 -0.43076602 0.07986911 -0.55524266 -0.19303711 0.874922 0.302077 0.03357458 -0.7376376 0.9181938 0.18947601 -0.25155413 0.7419894 -0.49775192 -0.16496943 0.6461358 -0.6818794 -0.40901315 0.8925535 0.18538237 -0.588846 0.18870713 0.54298884 -0.5909362
258 -0.21679907 0.3393739 -0.02179493 0.4930929 0.04749408 0.12505743 -0.39687526 -0.89320964 -0.7472349 0.57051456 -0.24189086 0.007156486 -0.38911265 0.2766537 0.2900498 -0.14818881 -0.25313973 0.93412274 -0.10616661 0.13566068 0.839592 0.6826803 -0.5946425 0.14407773 0.37431487 0.24315928 0.18104964 -0.25634763 0.6349696 0.10862955 -0.5685024 -0.18194935 0.0067692446 -0.25283417 -0.4639041 0.38234526 -0.28465724 -0.44815546 0.07496653 0.3631952 0.9693715 -0.6912558 0.034974955 0.017677588 -0.18006046 -0.23380204 -0.7502692 0.54266346 -0.036039565 0.6896844 0.3404365 -0.10424778 0.8260113 -0.46615446 -0.18388508 0.025579285 -0.4052782 0.03015204 0.55889606 -0.659629 -0.11006016 -0.9160811 1.1714194 -0.48853853
26 0.030454086 0.12821479 0.17360717 0.09953388 0.30460098 0.010243195 -0.3454397 -0.898557 -0.100397676 -0.18759409 0.24817005 0.31845644 -0.44958684 0.28717545 0.8295344 0.0035982158 0.22942531 0.29547095 -0.42822945 0.31987014 -0.007523343 0.37456557 -0.50450855 0.83461744 -0.12061758 0.31956795 1.0348674 0.03776939 -0.027163656 0.5343256 1.2660764 0.13074021 0.36642298 0.31611452 0.53472495 0.35004795 -0.18264824 -0.3724212 0.10851148 0.24589333 0.1705666 -1.0263526 -0.60664725 -0.19689845 -0.24406259 0.19882123 -0.0051583354 -0.5158046 -0.3698994 -0.22647649 -0.2954171 -0.16561322 0.365697 -0.649616 -0.20577745 -0.3176263 -0.044488985 0.27547738 1.3948259 0.17093104 -0.6492718 -1.0437042 0.7625035 -1.2204244
60 -0.21199672 0.4003034 -0.65924585 0.080621734 0.2810681 0.3308455 0.14915822 0.0993224 -0.25771612 0.2878701 0.9358771 0.03097738 -0.27359676 -0.17194703 -0.35171857 0.22172613 0.23647656 -0.13684848 -0.026395772 0.36007035 -0.3390449 -0.48042527 -0.49877632 0.28007913 0.43689334 0.631892 0.28116393 -0.2231328 0.24923079 0.9738696 -0.13285773 0.07798081 0.22762518 0.35238492 0.017470093 0.61687976 -0.54252267 -0.5044011 -0.36992297 0.39644057 0.6232455 -1.3343732 0.5268471 -0.22325599 -0.31800792 0.23620583 -0.421753 0.5491244 -0.40962452 0.95257056 0.08850655 0.4837405 -0.23670213 0.19813018 0.28699258 0.055983152 -0.53150564 0.06845411 0.9049575 -0.01612117 -0.4021494 -0.18031368 0.78807545 -0.9809896
181 -0.113904916 0.23213385 -0.43124127 0.51509124 -0.030174421 0.09002046 -0.5390977 -0.5515052 -0.31257272 0.2972248 0.15070932 0.5175803 -0.6757116 -0.4777985 0.32803297 -0.20342651 -0.061686892 0.6149193 0.46457133 0.45844376 -0.1441262 -0.13367999 -0.39234558 0.16679259 -0.010666318 -0.1621717 0.47682208 0.111716 1.0217452 -0.08833084 0.65023345 0.09335674 0.62411386 -0.67816454 0.3073795 0.30403268 -0.37079865 -0.5912354 0.12447049 0.70681703 0.9496419 -0.4925873 0.16550425 -0.31900293 -0.25297686 0.9220192 0.24826597 -0.075452775 -0.49222896 1.0555831 0.01171334 -0.29486203 0.7944923 -0.53965795 -0.27288386 0.67324746 -0.2778215 -0.25488487 0.6488797 0.3621277 -0.6093272 0.1420785 0.45000166 -0.62922245
56 -0.908675 0.43452284 -0.2926665 0.27374595 0.8245722 0.6673875 0.03614544 -0.12446791 -0.0209876 0.79519 0.80021536 -0.26748526 -0.5159331 -0.29279867 0.1600238 0.27146447 0.04710446 0.25406638 -0.18446015 -0.10791164 -0.12376651 0.25838006 -0.074683435 0.5358831 0.279283 0.14750032 0.23873201 -0.40215147 0.415069 0.97132087 0.14625557 -0.05556604 -0.04278088 -0.09893801 0.09973389 0.5413244 -0.72828573 -0.35670167 0.13066168 0.406476 0.45042366 -1.5283514 0.90700287 -0.022172952 -0.1769775 0.3383432 -0.4227868 0.3410591 -0.74909955 0.4531675 0.11042977 1.1807334 -0.12538202 -0.056867834 0.058908172 0.4064799 -0.048760816 0.25698397 0.6940762 0.050240014 -0.31700626 -0.36386985 1.1041763 -1.1458411
179 -0.179275 0.13399978 -0.57728755 0.42753065 0.2485273 0.32979417 -0.35947087 -0.63059586 -0.3464768 0.5817248 -0.07491165 0.29246733 -0.5860994 -0.28629768 0.21331404 -0.38935402 -0.24065399 0.6197168 0.4101955 0.34503227 -0.38752532 0.14741464 -0.35154486 0.3296591 -0.11581458 -0.23233414 0.45066744 0.13572687 0.63651276 -0.11683303 0.7231942 0.30069757 0.64739656 -0.67593086 0.53311354 0.098345414 -0.59874475 -0.5550157 0.050128587 0.7750805 0.95745194 -0.25697222 0.25175488 -0.55131036 -0.28351864 0.8792689 0.09525258 0.08081096 -0.6797804 0.8568895 -0.23159999 -0.075699426 0.7004506 -0.7287927 0.081152484 0.63484555 -0.65981936 -0.295384 1.0955563 0.25841817 -0.8470904 0.025801187 0.40269503 -0.54053843
90 -0.027111335 0.5327836 0.06493938 0.33601248 0.3189212 -0.25203732 0.25445092 -0.29176843 0.62400985 -0.18020204 0.877466 0.22092667 -0.0027342248 0.24934387 0.22704326 -0.0049238843 -0.36175326 -0.13178602 -0.21913756 -0.37569156 -0.1504919 0.24583589 -0.21569881 0.37263256 -0.5949475 0.79785895 0.24390548 -0.34186986 0.25774488 0.11119837 0.14529556 0.5684856 0.15321028 -0.8326021 -0.3689028 0.2603242 0.046543017 -0.64884347 0.3968544 0.64402765 0.518329 -1.4974687 -0.0872614 -0.49722236 0.23688686 0.058559198 -0.90601 -0.012350716 -0.5205095 1.3606001 0.25451204 0.28027323 0.30451062 -0.012258848 -0.2952572 0.046307806 -0.74263245 -0.5592636 1.0377853 -0.18677075 -0.09640952 -0.83789116 0.21474463 -0.27418828
3 -0.54344535 0.17284347 -0.13334352 0.19811942 -0.41915333 0.044361025 -0.4694664 -0.32555068 0.5413459 -0.099397965 -0.106504254 0.91195875 -0.38522595 0.11476027 1.2643497 -0.23833682 0.20597704 0.64545715 0.12830101 -0.16837832 0.013146959 0.16288972 -1.3519188 -0.03278807 0.03567214 -0.11033126 0.31440318 -0.22656775 0.75430906 0.7060143 0.26743376 0.17285222 0.9317623 -0.23416248 -0.47697997 0.22893709 -0.08735763 -0.9578227 0.34609085 0.67880404 -0.012337383 -1.1325784 0.48618716 -0.5853642 -0.31855813 0.36607116 -0.14774397 -0.093642585 -0.30541345 0.20458958 0.21618536 0.380218 0.0014974418 -0.62732506 -0.54646516 0.3825814 -0.90192586 0.14787647 0.038824245 0.07828061 -0.01641776 -0.5625307 1.0652137 -0.15979643
177 -0.22099026 0.08838094 -0.50273776 0.59985644 0.26164716 0.29505822 -0.022605013 -0.555051 -0.1740212 0.582816 -0.3213592 0.16328876 -0.57860744 -0.35205054 -0.14384003 -0.6409494 -0.23076916 0.52619046 0.22892997 0.50757325 -0.44845557 0.38407236 -0.20887274 0.18947941 -0.29789904 -0.20187676 0.7284951 -0.10990495 0.55985296 0.07284352 0.6659808 0.22873437 0.559485 -0.74243224 0.69003576 0.10917377 -0.46155044 -0.73184925 -0.044285126 0.5679227 0.76207155 -0.38854116 0.11998428 -0.40469956 -0.31429914 0.68207747 0.11971016 0.19197889 -0.9265515 1.0965207 -0.3200621 -0.28624916 0.808 -0.5258185 0.14357786 0.43406382 -0.712315 -0.38585585 1.3830261 0.09207642 -0.5583282 0.13014108 0.57893485 -0.52639806
25 0.0521091 0.34609163 0.01829449 -0.07438977 0.2813778 0.15531123 -0.4044065 -0.9992882 -0.02809151 -0.1668823 0.11605677 0.5593922 -0.5565216 0.5016512 0.8424511 0.092326984 0.18129495 0.41440123 -0.38898683 0.2989068 -0.17928869 0.370752 -0.46700644 0.79849726 0.005323488 0.33184803 0.9787802 0.118003 -0.12982064 0.3678832 0.8556068 0.20850883 0.32574123 0.70281965 0.47165486 0.15568493 -0.13799632 0.022927953 0.29539454 0.4199163 0.44416314 -1.0073782 -0.81301486 -0.11563331 -0.3204236 0.26557258 0.25892356 -0.2484843 -0.29697186 -0.054144796 -0.4997577 -0.3457026 0.27015617 -0.78924716 -0.1467777 -0.2649288 -0.14847872 0.28538424 1.3515856 -0.09379734 -0.46467844 -0.81039864 0.7848988 -1.1883497
4 -0.75440514 0.18459317 -0.18511854 0.3158669 -0.21553083 -0.27734566 -0.66736615 -0.1962454 0.49433222 -0.31290904 -0.006518534 0.80534923 -0.514961 0.22599721 1.1193842 -0.25073093 0.11638584 0.50365055 -0.108952515 -0.12901005 -0.10439714 -0.15439399 -1.1952865 -0.2014896 0.101229005 0.018806947 0.39471516 -0.10917282 0.8699702 0.66757154 0.5104172 0.122480325 0.7601854 -0.22323921 -0.3456648 0.2074473 0.18838148 -0.8383525 0.40066415 0.4961554 0.21611811 -0.9319364 0.7244384 -0.64468086 -0.56503993 0.14747588 0.067890875 -0.1192143 -0.032726794 0.39705265 0.23487064 0.2040194 0.25882933 -0.47090408 -0.29301348 0.38848823 -0.7274721 0.09180884 0.08123782 0.052169133 -0.27089608 -0.5507195 1.0639088 -0.15181011
182 -0.30917308 0.4037909 -0.33561262 0.46326733 0.050964855 0.048167005 -0.48048484 -0.5152104 -0.3838801 0.41124955 0.022504054 0.60269845 -0.48034397 -0.34484628 0.50600314 -0.17157812 -0.32326135 0.53069764 0.37837708 -0.07684355 -0.07353882 -0.11441739 -0.4438924 0.2379047 -0.066521056 -0.12336269 0.4542659 0.17984785 1.2649077 0.027739685 0.62843126 0.20443843 0.78826314 -0.4071434 0.2689843 0.21503597 -0.15278593 -0.46250668 -0.14554858 0.5816286 0.88438094 -0.62846434 0.076352015 -0.26714218 -0.3854067 0.94114465 0.2507388 -0.17777559 -0.65173876 0.7952993 0.14107077 0.06985814 0.72144616 -0.21116889 -0.16356844 0.4877721 -0.6438746 -0.34304774 0.43337598 0.3045269 -0.6166657 0.34253326 0.4919061 -0.70095515
149 -0.32517922 -0.42066127 0.026676873 0.12225582 0.7118736 0.33956715 -0.12360806 -0.5092406 -0.0934598 -0.24557285 0.30820563 0.33354846 -0.94112027 0.3696663 0.28399065 -0.042671718 0.25677553 0.23364218 -0.5230805 0.54671705 0.21368012 0.35424978 0.00043835037 1.1165166 -0.22631808 0.67749864 0.9844857 -0.3431439 -0.2558955 -0.0070436792 -0.6452422 0.733907 0.558535 -0.20350324 0.3501675 0.5052759 0.42865115 -0.69759697 0.16959803 1.0303087 0.21452278 -0.39629686 0.50056034 -0.44719708 -0.5248398 0.3400863 0.47221786 -0.22294153 -0.13800222 0.59433085 -0.6627779 0.3366568 0.14582776 -1.1383291 -0.47717246 -0.0027030075 -0.62001497 -0.19067815 0.8464043 -0.06150953 -0.13269363 -0.20115286 0.7792637 -0.46003723
178 -0.29576898 0.40274394 -0.71122986 0.6402774 0.33714083 0.40407085 -0.21331257 -0.46145838 -0.4325383 0.44439697 -0.21401481 0.124117166 -0.5848484 -0.31346732 0.07723992 -0.4238812 -0.19471858 0.36683556 0.48679537 0.53263015 -0.31226975 0.19600555 -0.38606364 0.35678038 -0.1963175 -0.25116616 0.50311404 0.02891123 0.55461687 -0.18688905 0.5958385 0.20738043 0.5476436 -0.7003729 0.7090549 0.011209833 -0.3653047 -0.76484144 0.30738756 0.6662245 1.0206246 -0.45734313 -0.13771544 -0.43024263 -0.2219687 0.77914745 0.31721652 0.085838184 -0.8953034 0.98625726 -0.3149253 -0.3198162 0.7114351 -0.6148386 0.041304488 0.3511024 -0.7494539 -0.24092299 1.1728028 0.17639273 -0.6179163 0.098106235 0.7031458 -0.36060518
128 -0.35624155 0.008778777 -0.23354171 0.21274519 0.2981711 -0.13627058 0.2317546 -0.7227818 -0.07615959 0.004237945 -0.32976037 0.5926972 -0.21549551 0.8958008 1.1015726 -0.24914545 -0.08007482 -0.06840968 -0.07859369 0.26717314 0.28645462 0.10085284 -0.16584617 0.44833308 0.3728207 -0.15228662 0.5534961 -0.5554493 -0.3829713 -0.2961222 0.37257588 -0.12279588 0.036883727 0.7509324 -0.08543665 0.7212206 -0.24566182 -0.32174647 -0.024352599 0.78432816 0.5257207 -1.001641 0.57079095 -0.2925847 -0.059860293 0.7961431 -0.18242002 -0.5837595 -0.9678039 1.3411747 -0.7186033 0.027218686 0.24957839 -0.35254675 -0.15292011 0.29986697 -0.2677337 0.68135816 0.88294363 0.48705608 0.07327306 -0.32001567 0.9750158 -0.19806106
267 -0.31234536 0.1411226 -0.49707648 -0.0038140123 0.43145663 -0.0037674087 0.3316552 -0.12025989 0.2008061 -0.12371705 0.39244726 0.47547737 -0.73798853 -0.55177575 0.5892291 -0.30417874 -0.07395112 1.0036037 -1.2038375 0.57625216 0.4882978 -0.015034569 -0.70243144 0.50202763 -0.20186366 -0.047488343 0.4237687 -0.5636655 0.009892877 -0.074080504 0.5389844 0.49333742 -0.44343776 -0.08803057 -0.31312007 0.003645516 -0.08000039 -0.34983733 -0.030395921 0.3366103 1.195905 -1.2925918 -0.025797207 -0.16337357 -0.080731206 0.6203304 -0.1261789 0.046129163 -0.5538422 0.106663376 -0.1948072 0.24339323 -0.23644939 -0.46379894 0.26065958 -0.0879672 -0.5059375 -0.19493777 0.7601904 -0.32662672 -0.2974666 0.182848 0.3992026 0.040953092
257 -0.024470877 0.34058306 0.22865443 0.339153 -1.9208192e-05 0.1499425 -0.3292544 -0.8635265 -0.9012543 0.5976051 -0.13774005 -0.272723 -0.34025058 0.27666274 0.5120183 -0.26812285 -0.43463686 0.9537124 -0.48071817 0.060777977 0.6270988 0.83814704 -0.6568767 0.07474167 0.094728515 0.08108899 0.08294872 -0.22280473 0.65939957 0.29620084 -0.4774982 -0.087925464 -0.0441254 -0.13749541 -0.29052204 0.38169733 -0.24177738 -0.14400324 0.00970998 0.63866365 0.6142798 -0.7200463 -0.049493536 0.15298279 -0.067017704 -0.20798494 -0.56612825 0.4981329 0.24455048 0.79110587 0.16510929 -0.07141275 0.7611191 -0.5461686 -0.2612996 0.27202925 -0.29979727 0.048565194 0.66030264 -0.4592982 -0.3152833 -0.62412614 1.1190751 -0.28978994
91 0.005532615 0.3800285 0.053772427 0.08979969 0.4512766 0.0038332837 -0.08022628 -0.40675023 0.57130206 -0.13829374 0.8613615 0.23603658 0.11749758 -0.00050803134 0.17619698 0.31967193 -0.2799744 -0.30774784 -0.2570463 -0.16944933 -0.008506416 0.08536636 -0.23395108 0.49517348 -0.42548183 0.69481015 0.35161746 -0.0791364 0.023407029 0.035817295 -0.059819706 0.73626345 0.16260618 -0.7617548 -0.38180155 0.39891002 0.27133533 -0.6854794 0.39439404 0.54356295 0.7601283 -1.5397645 -0.050057784 -0.31645045 0.49701717 0.068975314 -0.7547611 -0.13892509 -0.9159937 1.1685944 0.28927255 0.15302896 0.2610808 0.11081324 -0.34910676 0.18076639 -0.63320976 -0.49277243 0.9299394 -0.3254225 -0.20175517 -0.68637615 0.1482904 -0.4596097
183 -0.29884017 0.6127172 -0.36380726 0.5588062 -0.22859052 0.13520539 -0.5708629 -0.25971764 -0.02338023 0.36858946 0.056434184 0.608647 -0.40088022 -0.28027 0.29544386 -0.098582946 0.043374266 0.49327385 0.33895802 0.20051223 0.0051535247 0.15363245 -0.7169826 0.12200154 -0.17729482 0.2308414 0.4304824 -0.11097668 1.2799622 0.010209064 0.60054135 -0.083315745 0.56683546 -0.57106674 0.12335881 0.28315854 -0.20761883 -0.32815242 -0.09538304 0.5377126 0.93633205 -0.58203465 0.14866984 -0.6789874 -0.41587228 0.8621363 0.15906313 -0.27269474 -0.71550596 0.85118043 0.05374056 0.042808115 0.6922994 0.03020381 -0.19801405 0.40426096 -0.52916294 -0.1152507 0.1476625 0.45256323 -0.7118808 0.0625573 0.28288087 -0.6892692
61 -0.15402769 0.5624446 -0.47572482 -0.020423466 0.29089376 0.6785057 0.07718471 0.36651552 -0.33251828 0.059100088 0.66939396 0.17177825 -0.48605117 -0.33943805 -0.17763893 0.21344572 -0.06305995 -0.21145196 -0.009110005 0.29212156 -0.67392 -0.27287105 -0.58429015 0.2738563 0.22173923 0.49492577 0.22667184 -0.29661906 0.051277645 0.85477525 -0.43045056 0.096055 0.26408523 0.24965443 0.06434338 0.5622442 -0.41499704 -0.2957832 -0.32221922 0.41784257 0.43102807 -1.2956656 0.2647473 -0.4664251 -0.1831917 0.25761235 -0.42306244 0.2186186 -0.3798213 0.92983764 0.010411411 0.28377426 -0.1919794 0.40728933 0.40227422 0.48747662 -0.5298364 -0.1318704 0.7024361 -0.12684484 -0.30900055 -0.3151608 0.6707832 -0.9441676
249 -0.26945752 0.28649676 -0.41272813 0.6210836 0.005360718 0.47366065 -0.16834068 -0.33483788 -0.85149455 0.34652668 -0.00053144 -0.6895383 -0.22030164 0.11931346 0.60994995 -0.46528965 -0.42046505 0.9223609 -0.6550335 -0.041047562 0.6280565 0.7257873 -0.8292885 -0.118744805 0.2789762 -0.013440062 0.2063472 0.02040418 0.5660508 0.5054256 -0.092771895 -0.025022969 -0.027959611 -0.24725392 -0.18921173 0.46786404 -0.25877222 -0.26517516 0.07472682 0.4881788 0.5123171 -0.65799356 -0.07647629 -0.39760956 0.3062747 -0.69885623 -0.69490534 -0.70943654 -0.3086358 0.8052052 -0.009666334 -0.11966023 0.5093298 -0.3641154 -0.8122028 0.45402247 -0.26021335 -0.007871006 0.54131305 -0.21582377 -0.16960497 -0.68523425 0.8860571 -0.4214997
24 -0.18111084 0.15417914 0.006596395 -0.04327821 0.4248809 0.13881965 -0.22226976 -1.0110701 0.002174198 -0.14739521 0.045772392 0.48818842 -0.34464344 0.40652356 0.6386338 0.10599258 -0.042898804 0.4706286 -0.32407108 0.45555887 -0.22870792 0.3084842 -0.54122406 0.913598 0.06622077 0.3563373 0.7544103 0.006421904 -0.3468108 0.6527172 0.5583407 -0.013535178 0.33412293 0.619282 0.590098 0.48873332 0.07769077 0.037606783 0.20437036 0.27468333 0.0905673 -0.8905006 -0.67872345 -0.3485758 -0.2517958 0.34310985 0.20475289 -0.5534959 -0.48281983 -0.034171116 -0.49407032 -0.26916334 0.12149197 -0.6824692 -0.28367978 0.11943831 -0.22239728 0.15022723 1.4272721 -0.026951347 -0.60637385 -0.74067163 0.5615093 -1.1205343
236 0.3715319 0.4940365 -0.57818437 0.31981328 0.12111901 0.5086511 -0.502433 -0.304289 -0.5205504 0.07191466 0.037056774 0.6008892 -0.35498363 -0.10928121 0.60912544 -0.1945529 0.15663548 0.4357604 -0.108252764 0.03143044 -0.015926126 0.022651704 -0.42309883 0.52188456 0.14002962 0.42020246 0.6076697 -0.44144797 1.2210137 -0.08945613 0.759482 -0.05173255 0.8249048 -0.26712587 -0.04084241 0.84986746 -0.0013189989 -0.31828335 0.021893293 0.9339434 1.0336444 -0.676196 0.28453478 -0.42217368 -0.38628134 0.7594384 0.17141172 -0.09964227 -0.5654848 0.30210343 0.15662849 0.08106233 0.8231903 0.2155613 -0.1697753 0.4312485 -0.43425605 -0.43956575 0.06165603 0.5042036 -0.71705014 -0.31743836 0.64022315 -0.32778808
234 0.53698653 0.57030183 -0.48296613 0.13249001 0.4254551 0.7644202 -0.23549502 -0.4084963 -0.5671402 0.061647173 0.20704253 0.7066117 -0.50140727 -0.12256394 0.53112763 -0.13527222 0.031085735 0.5910281 -0.03536111 0.15160385 0.0322913 -0.008231912 -0.2913425 0.6080102 -0.058940273 0.3276004 0.6424493 -0.68454766 1.21958 -0.12352712 0.9320012 -0.020900097 0.7039087 0.1894882 0.2831245 0.83661526 0.3335755 -0.5212663 -0.20209736 1.4460571 1.265363 -0.48991057 0.29341096 -0.2854556 -0.23944034 0.72872645 -0.10637037 0.03020783 -0.34983218 0.25010952 0.01598451 -0.111999564 0.81418294 -0.07913465 -0.34086376 0.61581534 -0.31978482 -0.039035767 0.08978976 0.38720706 -0.8448362 -0.5958401 0.7458634 -0.18970455
112 -0.4591752 -0.16480698 -0.10865207 -0.11556133 0.5852716 -0.036350533 0.14242357 -0.9113706 -0.41450953 0.23317374 -0.03890265 -0.17836747 -0.62976253 -0.23719236 0.259776 -0.75923365 -0.3730527 1.2378335 -0.28114098 0.5828407 0.29480538 -0.17555265 -1.1031982 0.10919795 -0.17254694 0.29363114 -0.42768195 -0.6986216 0.8501038 -0.44008848 -0.16944928 0.4134075 0.00056446245 -0.22369042 -0.120820396 0.28871807 0.1525953 -0.47561532 -0.057704132 0.37933436 0.82639503 -1.0056629 -0.13707782 -0.19737916 0.052379474 -0.26982027 -0.29676366 0.2812572 -0.5713837 0.5348549 -0.060050476 0.600377 -0.2531707 -0.06560853 -0.8298122 0.5425889 -0.34520495 0.33583736 0.75129545 0.052729778 -0.23735784 -0.5790196 0.3713326 -0.20569623
127 -0.3383572 -0.1169737 -0.16187501 0.22622484 0.4861699 -0.27787998 0.21483497 -0.8652684 -0.15031996 -0.2842736 -0.3108737 0.29857048 -0.061800446 0.65463495 1.0464897 -0.32360783 -0.25232416 -0.028649116 0.11153531 0.31067443 0.1601299 0.041809075 -0.06244596 0.20398615 0.44946134 -0.1208573 0.5429082 -0.3747148 -0.32852134 0.02032641 -0.042716347 -0.2816835 -0.005955909 0.89697045 -0.15858208 0.5089511 -0.001009259 -0.2548927 0.01188998 0.8061133 0.7018308 -1.1754866 0.4283989 -0.52428025 -0.06020883 0.84943855 -0.07976007 -0.29301822 -0.7151653 1.1727401 -0.98803395 -0.062798925 0.40654787 -0.38527098 -0.12863505 0.21337704 -0.2848194 0.51834375 0.93211377 0.4173002 -0.2168257 -0.23196742 0.81100726 -0.4422416
235 0.40692654 0.5419218 -0.5726419 0.06314818 0.33635998 0.5600528 -0.4418357 -0.39020956 -0.55044127 -0.037024725 0.12638794 0.6104 -0.44499832 -0.29210863 0.5192952 -0.3268902 0.18543588 0.43623078 0.11081577 -0.010762314 0.19460985 0.025128894 -0.331894 0.6689065 0.1342596 0.23929194 0.6828558 -0.5314258 1.2306681 -0.1834437 0.9347277 -0.13909432 0.5292201 0.05040752 0.37772804 0.7625845 0.08837445 -0.21008904 -0.09220245 1.1743212 1.0129688 -0.7612391 0.3054568 -0.5080329 -0.30984002 0.5010237 -0.044655833 0.050458185 -0.47513336 0.39695507 0.15519564 0.102579355 0.83728784 -0.082715176 -0.44785097 0.56744146 -0.43455306 -0.33651385 -0.0009424001 0.42100137 -0.84454167 -0.4682438 0.71707475 -0.2678564
92 -0.03191599 0.6503152 -0.15822236 0.14896813 0.3548176 0.091390684 0.046208702 -0.36739495 0.54879695 0.006292315 0.78173476 0.2803917 -0.2087223 0.16688885 0.25615162 0.3506512 -0.12658723 -0.26506963 -0.23765722 -0.2590506 0.052743413 -0.14605372 -0.25871724 0.37514904 -0.44447514 0.8062422 0.38607216 0.2716046 -0.105005346 -0.14837235 0.004645366 0.6936051 0.40106234 -0.7404889 -0.33469173 0.42944458 0.1639517 -0.4153743 0.40219572 0.8336602 0.657902 -1.414494 -0.2622849 -0.55572385 0.25529864 -0.12546025 -0.52882737 0.018657967 -0.6144914 1.1402962 0.032589044 0.27690157 -0.028583996 0.26986313 -0.225569 0.0006485388 -0.65158963 -0.22773263 1.121004 -0.3333828 -0.030432737 -0.70618576 0.15980679 -0.4465621
125 -0.13023238 -0.076874 -0.07068251 0.16832098 -0.02111101 0.20553434 0.31460312 -0.69376194 -0.20998897 0.022179235 -0.26975095 0.19132869 0.18729125 0.813552 0.7120556 -0.44366616 -0.47819254 -0.051598754 0.006750624 0.5233646 -0.1521429 0.3997668 -0.07956261 0.40014753 0.43028006 -0.06605742 0.59063643 -0.12537536 -0.19690046 0.3053063 -0.27315903 -0.35208005 -0.32790542 0.43452647 0.12344963 0.7383235 0.20874058 -0.30936798 0.09530974 0.81675816 0.66674465 -1.2197822 0.26305002 -0.5510978 -0.1198358 0.5794963 0.06187943 -0.5709384 -0.103309385 1.0114223 -0.90417325 -0.11188505 0.35638306 -0.2793804 -0.20623857 0.042038664 -0.24640389 0.38255224 0.87612057 0.089817606 -0.02651288 -0.38579953 0.6539455 -0.22142904
126 -0.009439326 -0.026721945 -0.20663083 0.009060222 0.25900352 -0.2699179 0.46086067 -0.9386069 -0.06424726 0.11792977 -0.32925463 0.19735864 -0.028498858 0.7992809 0.8699334 -0.31609637 -0.38646922 -0.06310388 0.011129097 0.6343376 0.038046356 0.2805932 -0.04145177 0.34423873 0.47135648 0.029244116 0.79097027 -0.20887052 -0.22099635 0.012325907 -0.16114478 -0.29911658 -0.16435722 0.5456808 -0.078123696 0.53133994 0.07890095 -0.12855878 0.1285405 0.66509706 0.5804284 -1.1469132 0.42339793 -0.5311976 -0.16045663 0.57011414 0.16340224 -0.65470344 -0.34011963 1.2181345 -0.6506471 -0.0063728434 0.27902973 -0.3536118 -0.097279 0.48903635 -0.39148325 0.5232824 0.9459635 0.23677272 0.050871056 -0.26079264 0.877106 -0.39928457
93 0.04168676 0.36807507 -0.18127783 0.037526216 0.2552548 0.00068596646 -0.05267173 -0.24831754 0.7258616 -0.20964737 0.6869012 0.31947163 -0.24479796 0.00079229486 0.12210421 0.44043064 -0.18701999 -0.13269737 -0.15313464 -0.067344286 0.22978424 -0.05237764 -0.10586764 0.44516546 -0.40467444 0.73613304 0.30814803 0.16510642 -0.40828913 0.08499894 -0.10597773 0.3295604 0.46812478 -0.77143764 -0.33245808 0.39386943 0.14817262 -0.5686545 -0.21823427 0.85613304 0.505573 -1.3295971 -0.030156521 -0.3040793 0.103169695 -0.03537787 -0.5967399 -0.12471643 -0.7488251 1.078597 0.16368076 0.19071122 -0.07041319 0.19178994 -0.17130956 0.08727014 -0.29136768 -0.47855064 1.0767304 -0.3493273 -0.2918792 -0.7255688 0.16118544 -0.6625635
148 -0.11780749 -0.3321808 -0.07558604 -0.16429967 0.6225813 0.33794937 -0.31116286 -0.29737192 0.16121182 -0.1995877 0.24014534 0.087166205 -0.61293757 0.5785471 0.08454568 0.08552912 -0.10954378 0.19267125 -0.30840853 0.40559635 0.219454 0.3816548 -0.15094852 0.92333764 -0.14324576 0.5409307 0.9331248 -0.3321397 -0.10513384 0.005713564 -0.5265091 0.5081692 0.54477507 -0.24260588 0.4635743 0.39860287 0.3607305 -0.38907427 0.21481591 1.1328039 0.15573011 -0.7533287 0.5220105 -0.35903394 -0.54957336 0.34184992 0.41145694 -0.28090656 -0.31630352 0.28928807 -0.8198599 0.3502785 0.06216784 -1.184952 -0.6196204 -0.1378235 -0.78918755 -0.105868876 0.9036149 -0.30203146 -0.015966065 -0.23491585 0.66881955 -0.3049487
237 0.098433346 0.76313865 -0.42400947 0.18523355 0.038480025 0.21228099 -0.5628518 0.011256424 -0.2354216 0.33077005 0.13268629 0.69291824 -0.40408623 -0.24956223 0.54917365 -0.2925715 0.048956145 0.43133584 0.12815595 0.052120376 0.019863013 0.0078769615 -0.34209114 0.34495506 -0.077421926 0.1568659 0.5831687 -0.31836593 1.3444053 -0.0031991866 0.8492428 -0.051178735 0.6863397 -0.43667245 0.25691113 0.6096034 -0.06798567 -0.1640297 -0.098479226 0.7918448 0.839445 -0.77030575 0.25009727 -0.38537487 -0.49934545 0.46552795 -0.07735049 -0.3463751 -0.5232002 0.55081725 -0.06787129 0.042381927 0.62389165 0.34395948 -0.18574667 0.42300397 -0.6033376 -0.12530379 -0.067747034 0.40117463 -0.75855136 -0.21708407 0.73166186 -0.3429852
5 -0.8553221 0.21265733 -0.16432309 0.06992343 -0.2605759 0.16500755 -0.8714484 -0.072603464 0.31222853 -0.4307442 -0.19050395 0.81706554 -0.40025303 -0.2561379 1.0997825 -0.08269702 0.11832356 0.39203092 -0.07960747 0.07509599 -0.12313233 -0.05238228 -1.0941722 -0.06977563 0.011999706 0.14683239 0.3198187 -0.09983557 0.72321767 0.6348952 0.5695298 0.014673561 0.6853549 -0.49483094 -0.2719014 0.2706102 0.11963213 -0.7031304 0.09494499 0.4014027 0.3037503 -0.8201296 0.5870423 -0.36228248 -0.3803055 0.17237209 0.07769354 -0.28129402 -0.116907455 0.51104534 0.17474185 0.022385085 0.050212882 -0.5409541 -0.12072835 0.17270406 -1.0191385 -0.07506624 0.07768053 0.3186501 -0.25762728 -0.43697792 0.99626964 0.037087448
124 0.1453442 -0.19437814 -0.041933246 0.127378 0.20685035 -0.07714254 0.36707917 -0.60432166 -0.4366139 -0.02435727 -0.1552716 0.15454578 0.08272921 0.7688485 0.42059124 -0.17327757 -0.60057014 0.056276523 0.13090627 0.22300829 0.2124668 0.3836218 -0.15513343 0.34993857 0.5892042 0.1934987 0.5918014 -0.18494627 -0.18241452 0.38003263 -0.019346146 -0.28443184 -0.24876738 0.09443082 0.023769982 0.7576547 0.19143173 -0.12241774 0.070707165 0.35324147 0.54090726 -1.2310575 0.50146675 -0.45777777 -0.10107499 0.31224576 0.22389013 -0.50308734 0.010156952 0.9367731 -0.9394947 -0.3084933 0.23763256 -0.45429775 -0.2582984 0.24295636 -0.24999493 0.3224589 0.7833233 -0.1361901 0.08548484 -0.2307907 0.52421397 -0.5564056
256 -0.19482231 0.28900516 0.18077224 0.22024108 0.1322475 0.29161537 -0.30321196 -0.80566233 -0.8429912 0.46991214 -0.103404365 -0.37197965 -0.48626006 0.47389784 0.43882188 -0.36472273 -0.24853067 0.8557912 -0.6086096 0.19281693 0.80485904 0.5518657 -0.43476015 0.005671188 0.2214873 0.053124685 -0.036955602 -0.19609424 0.46592376 0.26003048 -0.32149667 -0.037482698 -0.12687512 -0.2183367 -0.38563237 0.49025503 0.01425442 -0.19387278 0.2158373 0.5220852 0.75578415 -0.3999291 0.052997652 -0.022458216 -0.03161047 -0.2770999 -0.7568844 0.0505103 -0.07169614 0.6395193 0.32643872 -0.2382858 0.7584668 -0.42850003 -0.3679928 0.1436555 -0.25887752 0.4226762 0.785825 -0.4021406 -0.21423541 -0.5081805 0.84752905 -0.5208168
